{'gcn/graphconvolution_1_vars/weights_0:0': array([[ 1.85524359e-01,  3.98294955e-01, -6.77188411e-02,
         4.96450700e-02, -3.96853611e-02,  2.85120070e-01,
         4.59931970e-01,  4.66398656e-01,  3.26623976e-01,
         4.11026746e-01,  3.36457998e-01,  4.05651957e-01,
         3.48226607e-01,  3.39780748e-01,  2.41061211e-01,
        -2.11414576e-01],
       [ 2.76464313e-01,  2.01349109e-01,  4.66089994e-01,
         3.07593375e-01,  9.49046202e-03,  2.84319550e-01,
        -1.15792761e-02,  9.53373387e-02,  1.36499673e-01,
         2.04389453e-01,  2.92209744e-01,  3.21284324e-01,
         2.85036922e-01,  1.52079254e-01,  1.55191541e-01,
         6.29213452e-01],
       [-4.67634454e-05,  8.32217665e-06, -2.45192387e-05,
        -9.10728631e-05, -1.18474622e-04, -1.08265682e-04,
        -1.31475208e-05,  1.50459691e-05, -5.94711491e-06,
        -1.56524675e-05, -4.41260927e-05,  1.05620775e-05,
        -1.15538205e-05,  2.10174676e-06, -1.94008298e-05,
         6.02897962e-05],
       [ 1.85169354e-01,  4.00545388e-01,  7.82806724e-02,
         2.12711498e-01, -1.11792339e-02,  3.62850875e-01,
         1.86351702e-01,  2.21340060e-01,  2.29276717e-01,
         2.97016740e-01,  2.87884355e-01,  3.21051776e-01,
         1.58380732e-01,  2.80589014e-01,  1.64045990e-01,
         2.09045976e-01],
       [ 2.09263898e-02,  3.05018388e-02,  2.50936877e-02,
         4.53044102e-02,  1.04804902e-04,  1.87442880e-02,
        -4.03664401e-03, -5.97605016e-03, -8.23521707e-03,
         2.22936496e-02,  1.93205904e-02,  4.63031046e-03,
         2.22716536e-02,  9.11661144e-03,  2.33371221e-02,
         6.45415559e-02],
       [ 6.98830783e-02,  3.96284722e-02,  1.89078346e-01,
         7.33414739e-02,  1.23679405e-03,  3.27699035e-02,
        -2.87709963e-02, -4.83121164e-02, -2.63733864e-02,
         2.62365397e-02,  1.89513639e-02,  7.94942211e-03,
         4.64280024e-02, -2.26749722e-02,  2.56693438e-02,
         1.29131302e-01],
       [-5.63084148e-04,  2.26510540e-02,  4.10080515e-02,
         1.08968019e-02,  8.32980440e-04,  8.44552647e-03,
         2.56384313e-02,  7.30692642e-04,  7.64625007e-03,
         1.54793551e-02,  1.90021712e-02,  1.10694105e-02,
         1.39398389e-02, -8.48947559e-04, -7.49556872e-04,
         4.63899300e-02],
       [ 4.54401076e-02,  3.95375490e-02,  5.15093841e-02,
         4.21796665e-02,  4.00635297e-04,  4.73751985e-02,
        -1.81986336e-02, -3.29906531e-02,  1.28648393e-02,
         3.15483697e-02,  2.79793143e-02,  3.28515284e-02,
         4.09503058e-02,  2.90550422e-02,  3.41204405e-02,
         9.77522880e-03],
       [ 7.32727349e-05,  2.54010409e-02,  7.96830729e-02,
         1.00504691e-02, -8.59807551e-05, -5.08063007e-03,
        -2.48763002e-02, -2.67618261e-02,  7.13857589e-03,
        -7.59641267e-03, -4.64262404e-02,  4.13709655e-02,
         1.54168988e-02, -2.60287467e-02, -2.11850889e-02,
         2.33379677e-01],
       [ 8.77648368e-02,  1.03148147e-01, -3.26535455e-03,
         6.39491603e-02, -4.99336966e-05,  1.42289519e-01,
         1.17664807e-01,  7.65700415e-02,  8.74040499e-02,
         1.06292240e-01,  1.26465827e-01,  1.06060669e-01,
         9.96944606e-02,  1.11635372e-01,  8.46132860e-02,
        -1.88774794e-01],
       [ 8.26943479e-03,  3.09397615e-02,  1.87554453e-02,
         8.02185945e-03,  4.15657007e-04,  2.24097613e-02,
         1.04827564e-02,  3.52931693e-02,  2.04549301e-02,
         2.65486799e-02,  2.60329526e-02,  2.23990139e-02,
         2.26571746e-02,  2.61444878e-02,  7.48704374e-03,
         5.99306077e-07],
       [ 1.32028270e-03,  7.50960037e-03,  9.03587975e-03,
         8.61186348e-03, -3.97429067e-05,  2.55161128e-03,
         4.30087373e-03,  2.26491620e-03,  1.72316507e-02,
         6.99322764e-03,  8.05805065e-03,  2.00035963e-02,
         1.77864339e-02,  7.04631722e-03,  8.35378375e-03,
        -1.65828299e-02],
       [ 2.85466574e-02,  9.19896215e-02, -1.41985014e-01,
        -3.23335007e-02,  2.06489436e-04,  1.05295390e-01,
         2.02095225e-01,  1.54829204e-01,  1.09795444e-01,
         8.87109265e-02,  1.19307294e-01,  1.03443354e-01,
         4.67495322e-02,  1.68369994e-01,  8.07083771e-02,
        -1.77833706e-01],
       [-1.11900540e-02, -6.49920618e-03,  4.45663836e-03,
        -1.64557565e-02, -2.35466316e-04, -9.10736248e-03,
        -7.60117313e-03, -3.64016439e-03, -6.02936046e-03,
        -1.34577695e-02, -1.54200494e-02, -2.45340052e-04,
        -1.05943931e-02, -1.44324154e-02, -1.38594909e-02,
         3.25916149e-02],
       [-9.18717589e-03, -5.89230191e-03,  1.14405015e-02,
        -1.26185641e-02,  1.39540134e-04, -1.29854726e-02,
        -3.86694656e-03, -6.79353671e-03, -1.61367077e-02,
        -1.11596361e-02, -1.45170949e-02, -8.70823103e-04,
        -3.37965181e-03, -1.49874128e-02, -9.05638654e-03,
         5.15484773e-02],
       [ 1.05166286e-02,  9.73815378e-03, -6.64441939e-03,
         2.48195790e-03,  9.41906546e-05,  6.71072397e-03,
         8.94754939e-03,  1.17780557e-02, -1.10688363e-03,
         1.35827335e-02,  3.48844565e-03,  6.12408342e-03,
         1.10472227e-02,  2.34841648e-03,  9.71812406e-04,
        -9.07495990e-03],
       [ 3.10300551e-02,  1.64404996e-02, -7.59188831e-03,
         1.82041433e-02,  1.33387555e-04,  1.44117502e-02,
         1.92492642e-02,  1.43817738e-02,  2.04369351e-02,
         1.23830102e-02,  1.77777261e-02,  2.53839660e-02,
         2.02781074e-02, -5.92483790e-04,  2.04652902e-02,
        -2.19731722e-02],
       [-5.02612069e-03, -1.10921739e-02, -1.27138514e-02,
        -1.89682469e-02,  1.21052191e-03, -2.45722774e-02,
        -1.07971590e-03, -7.51171634e-03, -7.27668218e-03,
        -2.88747139e-02, -2.04731375e-02, -1.26940347e-02,
        -2.19298191e-02, -3.47938389e-02, -2.01028120e-02,
         3.23387794e-02],
       [ 6.72578737e-02,  5.56412302e-02,  2.15452939e-01,
         1.13052331e-01, -6.27618865e-04,  2.71887463e-02,
        -1.46745220e-01, -1.20295957e-01, -5.94737194e-02,
        -1.33917769e-02, -2.30272543e-02,  3.31192650e-02,
         4.42712270e-02, -8.68840739e-02, -3.15527767e-02,
         3.49156350e-01],
       [ 1.15619758e-02,  9.74544417e-03,  4.63009402e-02,
         3.46270390e-02,  1.40224774e-05,  5.36621641e-03,
        -3.81287262e-02, -3.43891606e-02, -1.81345791e-02,
         1.92989374e-03, -7.39081204e-03,  1.01123436e-03,
         1.24135679e-02, -2.94757336e-02,  6.10628398e-03,
         1.13423884e-01],
       [-8.30459595e-03, -1.55952713e-03,  1.75135396e-02,
         1.35488398e-02, -2.31189588e-05, -7.97213335e-03,
        -1.51665397e-02, -9.52630956e-03, -1.55991074e-02,
        -1.08085107e-02, -1.20191574e-02, -6.41937018e-04,
        -8.18432774e-03, -2.20315065e-02, -1.12622688e-02,
         2.27895714e-02],
       [ 1.56933046e-03, -1.19963149e-02, -3.16515192e-03,
        -2.70849187e-03,  5.29134340e-05, -9.46642272e-03,
        -8.78802221e-03, -1.20086493e-02, -1.77516844e-02,
         3.25959991e-03, -1.89002119e-02,  2.47161835e-03,
        -3.18309059e-04, -5.98771079e-03,  3.87024600e-04,
        -7.31535023e-03],
       [ 2.29306072e-02,  3.30986194e-02,  2.51982883e-02,
         2.54398622e-02,  1.98202627e-03,  2.22288314e-02,
         3.81111167e-03, -5.02345059e-03,  5.57183661e-03,
         2.05357559e-02,  1.62141602e-02,  2.28833277e-02,
         1.77749023e-02,  1.94132105e-02,  2.16438156e-02,
        -5.30775525e-02],
       [ 1.26852095e-03,  1.74902985e-03,  8.67031701e-03,
         3.81766655e-03, -1.85700628e-08, -2.00069044e-05,
        -1.06211258e-02,  8.76858830e-04,  5.55527816e-03,
        -1.26322068e-03,  3.77609686e-04,  3.39080987e-04,
         1.03315711e-03,  4.79933078e-04,  4.37754299e-03,
        -5.09302830e-04],
       [ 2.71754414e-01,  3.15677583e-01,  8.60917941e-02,
         1.53655916e-01, -7.26618990e-02,  3.02805334e-01,
         4.89315152e-01,  5.07659316e-01,  4.39173669e-01,
         4.39716190e-01,  3.46177369e-01,  5.27338505e-01,
         4.28734392e-01,  4.36627150e-01,  2.84056246e-01,
         1.49313845e-02],
       [ 1.89601481e-01,  1.98899463e-01,  5.68224609e-01,
         2.78969198e-01,  1.07387046e-03,  3.82626206e-02,
        -3.81302625e-01, -2.77912289e-01, -1.47207290e-01,
         8.26834887e-02,  5.61442934e-02,  1.05866298e-01,
         1.03815623e-01, -8.74321684e-02, -2.96430616e-03,
         7.36490309e-01],
       [ 1.77550018e-02, -2.52721831e-03,  3.03386580e-02,
         2.36599110e-02,  6.63332001e-04, -1.88989900e-02,
        -3.57213505e-02, -4.95148487e-02, -5.01180291e-02,
        -2.19159666e-02,  2.60245916e-03, -3.42731923e-02,
         5.08891419e-03, -5.32116406e-02, -1.13703180e-02,
         1.41488696e-02],
       [ 2.21509822e-02,  1.23391375e-02,  3.79788280e-02,
         1.49458069e-02,  6.34382130e-04, -1.21893920e-02,
        -5.27398586e-02, -4.39711027e-02, -2.71534510e-02,
        -4.19622660e-03, -6.12518331e-03,  9.59969778e-03,
         5.36656473e-03, -3.97256352e-02, -1.03128534e-02,
         6.50437027e-02],
       [ 9.36454348e-03,  1.54336523e-02,  1.23651475e-02,
         6.77229231e-03, -2.10201455e-04, -4.09050751e-03,
        -3.33622806e-02, -1.40658990e-02, -3.05786766e-02,
        -3.04898666e-03,  5.19837020e-03,  3.69593315e-03,
         4.50570416e-03, -1.07130688e-02, -1.54751958e-03,
        -9.87775531e-03],
       [ 2.33010575e-01,  1.59327909e-01,  5.05940914e-01,
         2.78112143e-01, -5.79941180e-03,  1.67282999e-01,
        -2.37349823e-01, -1.45925105e-01, -3.76569927e-02,
         1.64954558e-01,  1.75630122e-01,  1.45693228e-01,
         1.43913910e-01, -5.06623201e-02,  8.96634310e-02,
         6.11077189e-01],
       [ 1.68890916e-02,  1.45786069e-02,  1.14528313e-02,
         5.00799250e-03, -1.33596244e-03,  1.27912043e-02,
        -8.21915269e-03, -7.31471274e-03, -1.72838252e-02,
         9.81171988e-03,  2.38907784e-02,  1.22405309e-02,
         1.42439986e-02, -2.16646236e-03,  1.08953621e-02,
        -8.51289369e-03],
       [ 3.55898291e-02,  2.69547608e-02,  8.97960588e-02,
         4.60187271e-02, -2.56222615e-04, -1.03678391e-03,
        -5.44540361e-02, -5.85871302e-02, -3.81471105e-02,
        -2.27331789e-03, -3.52109520e-04,  9.07273963e-03,
         2.11248342e-02, -4.32899483e-02, -3.33646336e-03,
         1.55798852e-01],
       [ 2.43466813e-02,  1.48468660e-02,  2.38316916e-02,
         1.13586020e-02, -1.99197535e-03,  7.39921723e-03,
        -3.59821469e-02, -3.38166161e-03,  4.68546338e-03,
         1.77093141e-03,  1.00196814e-02,  5.49140666e-03,
         1.42589696e-02, -1.72555204e-02,  2.94182752e-03,
         3.12942676e-02],
       [ 4.21240507e-03, -5.85061777e-03,  2.07108818e-02,
         4.04508831e-03, -1.63164863e-03, -1.33828567e-02,
        -3.19682024e-02, -2.95982026e-02, -2.82673407e-02,
        -5.76623948e-03, -6.98818592e-03, -7.23910844e-03,
        -7.60150654e-03, -2.94846464e-02, -8.52317177e-03,
         3.35013010e-02],
       [ 2.35769022e-02,  3.03304233e-02,  1.15459738e-02,
         3.59910615e-02, -9.84749931e-05,  2.19582208e-02,
         7.92667829e-03, -1.36639876e-02,  2.23435857e-03,
         2.04166286e-02,  1.75159443e-02,  3.30014080e-02,
         2.90620774e-02,  2.70291511e-03,  1.91880763e-02,
         2.02528127e-02],
       [ 1.97474554e-01,  2.99667150e-01, -2.73830444e-01,
         3.45304906e-02, -3.69798988e-02,  3.62733364e-01,
         7.11546838e-01,  5.92160165e-01,  5.24136841e-01,
         5.02545297e-01,  3.65176976e-01,  5.07450461e-01,
         3.34430099e-01,  5.89735210e-01,  3.68302375e-01,
        -4.69224274e-01],
       [ 1.50576875e-01,  1.28406167e-01,  3.81697655e-01,
         1.96771026e-01,  8.84715002e-04,  6.70902282e-02,
        -2.18121618e-01, -1.48178741e-01, -8.93870369e-02,
         7.42865428e-02,  5.57101928e-02,  1.15208052e-01,
         1.44219711e-01, -5.09407148e-02,  2.65637245e-02,
         4.60460395e-01],
       [ 1.08898140e-01,  1.01612456e-01,  2.74732262e-01,
         1.62400827e-01,  1.59116738e-04,  1.20810442e-01,
        -1.38866305e-01, -1.00466557e-01, -5.47606833e-02,
         3.32823917e-02,  3.64234857e-02,  7.39504248e-02,
         9.47461128e-02, -3.39384563e-02,  5.46073494e-03,
         3.02494049e-01],
       [ 1.04957916e-01,  1.62494138e-01,  3.16054016e-01,
         1.75183088e-01,  1.60385063e-03,  4.15887684e-02,
        -2.36922458e-01, -1.59025639e-01, -9.26887840e-02,
         5.58001511e-02,  5.30096330e-02,  9.23831612e-02,
         8.00499544e-02, -7.24411085e-02, -2.14141216e-02,
         4.89040434e-01],
       [ 7.82958195e-02,  5.89377712e-03,  2.20134050e-01,
         9.47445184e-02,  2.25736178e-03, -2.31329054e-02,
        -1.72235280e-01, -1.57899365e-01, -1.23578213e-01,
        -3.59772630e-02, -3.72103006e-02, -5.62963299e-02,
         2.49935184e-02, -1.42891765e-01, -2.89029740e-02,
         2.05324531e-01],
       [ 9.60892141e-02,  7.34926537e-02,  1.38742477e-01,
         1.11008711e-01, -1.06610591e-03,  6.49534836e-02,
        -5.32628261e-02, -5.25346920e-02, -1.05846692e-02,
         4.06401120e-02,  5.01544438e-02,  4.26824726e-02,
         7.80024454e-02, -1.92776248e-02,  3.73463891e-02,
         7.09921345e-02],
       [ 1.02635697e-01,  1.29242986e-01,  3.02164853e-01,
         1.55103430e-01,  1.52376131e-03,  8.71745199e-02,
        -2.09416464e-01, -1.64367065e-01, -1.20300934e-01,
         2.26974655e-02,  1.25997057e-02,  4.91591692e-02,
         7.00513124e-02, -1.02483548e-01, -1.18094916e-02,
         3.74451578e-01],
       [ 1.61382124e-01,  2.04422191e-01,  3.98103505e-01,
         2.20287934e-01,  1.98010210e-04,  1.64799795e-01,
        -2.56522894e-01, -1.64768979e-01, -7.80013576e-02,
         3.85357402e-02,  1.58496480e-02,  1.15116596e-01,
         1.56521127e-01, -1.31083326e-02,  1.09889787e-02,
         5.47256827e-01],
       [ 1.03777416e-01,  8.18555579e-02,  3.37372065e-01,
         1.42190412e-01,  1.53704837e-03,  7.48794898e-02,
        -2.53979117e-01, -1.88607961e-01, -1.34670302e-01,
        -1.88662931e-02,  4.10515675e-03,  3.92739959e-02,
         6.38371184e-02, -1.31642699e-01, -3.14067975e-02,
         4.75743681e-01],
       [ 1.51329041e-01,  7.72907957e-02,  3.91247362e-01,
         1.98767409e-01,  1.37795194e-03,  8.77268538e-02,
        -2.75841147e-01, -2.01376200e-01, -1.37100071e-01,
         5.79744279e-02,  3.84347178e-02,  6.36282414e-02,
         1.13848992e-01, -5.63365482e-02,  1.50226001e-02,
         4.74649996e-01],
       [ 1.10091724e-01,  1.13724746e-01,  2.01700404e-01,
         1.40186638e-01, -2.60622561e-04,  9.54875275e-02,
        -1.06691293e-01, -7.63890371e-02, -4.25403714e-02,
         4.28408496e-02,  5.59809878e-02,  5.19232638e-02,
         8.42342004e-02, -3.25090326e-02,  2.27920655e-02,
         1.36839151e-01],
       [ 1.85868010e-01,  1.26600936e-01,  4.10353720e-01,
         2.50909895e-01, -1.07599175e-04,  8.71373713e-02,
        -2.32830614e-01, -1.57039404e-01, -9.27591547e-02,
         8.99961963e-02,  5.99089861e-02,  1.22216232e-01,
         1.16606802e-01, -2.78104786e-02,  4.74829376e-02,
         4.44158077e-01],
       [ 5.55823930e-02,  6.30749539e-02,  1.35201827e-01,
         8.38611424e-02, -1.44307502e-03,  5.55289872e-02,
        -1.13975093e-01, -8.69748667e-02, -7.20976442e-02,
         1.50756240e-02,  2.84781354e-03,  2.58979350e-02,
         3.52354646e-02, -4.44425531e-02, -1.93605945e-02,
         1.59593701e-01],
       [ 7.85709694e-02,  6.29654601e-02,  2.18068212e-01,
         1.06139272e-01,  7.35862006e-04,  7.40117207e-02,
        -1.63102120e-01, -1.36822566e-01, -9.96405110e-02,
         9.93614923e-03,  2.35987343e-02,  2.10780447e-04,
         4.67737094e-02, -9.09842700e-02, -1.07110776e-02,
         2.49186158e-01],
       [ 7.98037052e-02,  3.48917022e-02,  2.44162336e-01,
         1.19981371e-01,  1.03141204e-03, -5.89621114e-03,
        -1.97421670e-01, -1.60611644e-01, -1.13133520e-01,
        -2.13810429e-02, -2.29778625e-02, -1.42236454e-02,
         4.19002697e-02, -1.25094026e-01, -2.89189033e-02,
         3.26289624e-01],
       [ 1.47070345e-02,  9.34131723e-03,  5.35032898e-02,
         2.43180618e-02,  2.68518110e-04, -2.16328120e-03,
        -5.79741560e-02, -3.48265171e-02, -3.44211906e-02,
        -1.37793121e-03, -6.88132551e-03, -6.31221244e-03,
         1.31879356e-02, -3.10163349e-02, -4.88159899e-03,
         8.79920945e-02],
       [ 1.32593159e-02,  1.60560769e-04,  2.45800279e-02,
         6.65660016e-03,  4.47105471e-04, -1.10315531e-02,
        -1.78634115e-02, -9.25432704e-03, -1.91086363e-02,
        -2.76158773e-03, -8.59184470e-03, -7.22069107e-03,
        -1.41531485e-03, -2.45205201e-02, -8.43169168e-03,
         3.45673114e-02],
       [ 5.86387794e-03,  5.83535526e-03,  4.07799780e-02,
         1.78305451e-02, -1.85552367e-03, -6.66827429e-03,
        -3.71135138e-02, -2.23841984e-02, -1.68718603e-02,
         1.63232605e-03, -7.08128233e-03, -2.09833030e-04,
         5.64112980e-03, -2.36593187e-02, -7.78775313e-04,
         4.97025438e-02],
       [ 1.46839559e-01,  4.84018743e-01, -3.04211318e-01,
        -3.68190072e-02, -2.26151254e-02,  2.99267769e-01,
         7.06451952e-01,  6.80304408e-01,  5.00879049e-01,
         3.79369944e-01,  3.62253189e-01,  4.02507335e-01,
         2.27385074e-01,  4.69795227e-01,  3.91940653e-01,
        -4.52961117e-01],
       [ 1.32079348e-01,  1.42960712e-01,  3.54605049e-01,
         2.00726971e-01, -5.05100295e-04,  1.38140947e-01,
        -2.67458528e-01, -1.83764324e-01, -1.17217116e-01,
         6.23898543e-02,  4.43709604e-02,  6.69569597e-02,
         8.27589110e-02, -3.07284445e-02, -8.86480603e-03,
         3.63065481e-01],
       [ 6.23677410e-02,  3.98822725e-02,  1.50603727e-01,
         8.96837637e-02,  2.23819428e-04,  2.88431626e-02,
        -8.67437944e-02, -5.61410412e-02, -2.61816252e-02,
         1.86080243e-02,  1.19175566e-02,  1.76394861e-02,
         4.44624238e-02, -3.64297703e-02,  2.39602244e-03,
         1.30894095e-01],
       [-3.90025275e-03, -1.51779130e-03, -1.36724357e-02,
        -4.10973793e-03, -1.80310381e-05, -2.17965315e-03,
        -2.05527642e-03,  9.26763751e-04, -2.38698325e-03,
        -1.62910786e-03, -1.09388935e-03, -5.51817846e-03,
        -3.38549772e-03,  1.34289789e-03, -3.99166718e-04,
        -1.82427466e-02],
       [ 4.17604744e-02,  1.60249826e-02,  9.27616134e-02,
         4.90408987e-02,  3.31589807e-04, -2.03959318e-03,
        -7.11646378e-02, -5.88766150e-02, -5.10535464e-02,
        -6.34230766e-03, -8.51637684e-04,  3.58073646e-03,
         1.52487271e-02, -5.99793568e-02, -1.53093450e-02,
         8.14970285e-02],
       [ 2.18972489e-02,  1.89309809e-02,  1.33526372e-02,
         1.66510157e-02,  1.78181741e-04,  4.53199493e-03,
         3.08116339e-03, -9.40342434e-03, -2.69940440e-02,
         7.79476343e-03,  8.83943588e-03, -2.31619761e-03,
         7.70042278e-03, -1.04012759e-03,  1.37345893e-02,
        -3.51182632e-02],
       [ 3.93724209e-03, -2.43393029e-03,  1.87425164e-03,
         6.77274400e-03,  4.12668451e-04, -3.02730151e-03,
        -1.47990948e-02, -7.94571824e-03, -4.87868412e-04,
        -1.65340258e-03, -5.96610922e-03, -9.84215457e-03,
         6.67199609e-04, -1.34801604e-02, -1.35256629e-03,
        -8.18848796e-03],
       [ 2.89638340e-02,  1.53431818e-02,  3.86282802e-02,
         2.58960668e-02, -7.32676126e-05,  8.12145881e-03,
        -6.43473025e-03, -1.26162721e-02, -7.86999520e-03,
         1.96551085e-02,  1.93464030e-02,  7.44592922e-04,
         1.38797779e-02, -1.29485223e-02,  1.18824113e-02,
         4.07532230e-02],
       [ 6.16455004e-02,  1.25289802e-02,  1.84892461e-01,
         1.03158303e-01,  2.28186417e-03, -7.28088245e-03,
        -1.46524906e-01, -1.11649178e-01, -7.81565383e-02,
        -1.52402213e-02, -2.21152715e-02, -1.02160526e-02,
         2.93415543e-02, -1.11277543e-01, -1.99834667e-02,
         2.26200789e-01],
       [ 2.08831713e-01,  3.89709890e-01, -1.35973945e-01,
         1.09749340e-01,  8.02352186e-03,  4.76054132e-01,
         6.19628310e-01,  5.18041968e-01,  5.09038508e-01,
         3.59489858e-01,  4.88098681e-01,  4.24235672e-01,
         3.25507879e-01,  5.49925029e-01,  2.87594587e-01,
        -2.42203087e-01],
       [ 2.13638484e-01,  1.88942969e-01,  5.07977366e-01,
         2.91065305e-01,  2.14677217e-04,  7.38357678e-02,
        -3.13740343e-01, -2.09429011e-01, -1.18157104e-01,
         1.77979637e-02,  4.27941531e-02,  4.85737137e-02,
         1.79006070e-01, -3.28811891e-02,  1.62323304e-02,
         6.29375637e-01],
       [ 2.86988840e-02,  2.40234248e-02,  1.07715122e-01,
         5.83144687e-02, -3.91478301e-04, -4.15442250e-04,
        -6.05665669e-02, -5.71895204e-02, -3.77663113e-02,
        -1.54722081e-02, -2.44631320e-02,  2.06571277e-02,
         7.41427392e-03, -6.97397068e-02, -2.71629225e-02,
         1.60720959e-01],
       [-1.21511184e-02, -4.37194156e-03, -9.20427311e-03,
        -2.24248078e-02,  1.00354315e-03, -2.25743130e-02,
         3.46582616e-03, -1.22018848e-02, -7.36435642e-03,
        -6.81090169e-03, -2.43792422e-02, -9.48785990e-03,
        -1.46730635e-02, -2.66216211e-02, -1.30908135e-02,
         1.17625715e-03],
       [ 2.33957544e-03,  2.93733878e-03,  3.80070973e-03,
         1.22330093e-03,  7.06445462e-07,  3.38780717e-03,
        -1.47118396e-03,  6.82628760e-03,  5.38250105e-03,
         1.61214778e-03,  8.79433646e-04,  9.87341511e-04,
         2.60047498e-03,  3.74762737e-03,  3.13325692e-03,
        -9.09780525e-03],
       [ 6.33371877e-04,  2.26804521e-03, -4.87305596e-03,
        -1.25997805e-03,  3.28588139e-05,  1.63345190e-04,
        -1.23851234e-03,  3.04689677e-03,  2.97982502e-03,
         1.01569341e-03, -1.56652438e-03, -1.60145969e-03,
        -3.73657502e-04,  4.84896358e-03,  1.39766745e-03,
        -4.38379962e-03],
       [ 2.08860472e-01,  4.93804127e-01, -1.75877854e-01,
         1.25094444e-01,  5.28910197e-03,  3.86888504e-01,
         6.38342917e-01,  6.31855667e-01,  5.71798503e-01,
         4.22524095e-01,  5.05433798e-01,  4.03666794e-01,
         2.40724415e-01,  4.23592865e-01,  3.35726857e-01,
        -3.30974430e-01],
       [ 2.55977754e-02,  2.21875850e-02,  3.22876032e-03,
         1.14966352e-02, -1.00212837e-05,  2.40724627e-02,
         1.18660936e-02,  8.25154595e-03,  1.88756399e-02,
         2.82695964e-02,  2.66107973e-02,  2.19820142e-02,
         1.87674779e-02,  1.61742680e-02,  1.56997442e-02,
        -3.79970744e-02],
       [ 3.32644917e-02,  2.22569592e-02,  6.66021556e-02,
         3.78819108e-02,  2.27044497e-04,  5.72339585e-03,
        -3.67388427e-02, -4.49159667e-02, -1.55472942e-02,
         2.26939912e-03,  4.14605718e-03,  1.24156075e-02,
         1.59480497e-02, -3.46994475e-02, -2.00702052e-05,
         9.65018719e-02],
       [ 3.80855381e-01,  4.17979717e-01,  2.22471952e-01,
         1.37515694e-01, -9.03522503e-03,  3.18608671e-01,
         4.02907491e-01,  3.44950825e-01,  3.24083179e-01,
         3.58107716e-01,  4.58720177e-01,  4.08910573e-01,
         3.26068521e-01,  3.17952424e-01,  3.51892263e-01,
         2.55663663e-01],
       [ 6.51706606e-02,  5.86963631e-02,  1.35614067e-01,
         7.18982965e-02, -9.29128146e-05,  4.08986732e-02,
        -1.96279183e-01, -1.29616141e-01, -1.14856809e-01,
         1.44987581e-02, -3.37706553e-03,  1.95910707e-02,
         5.05531803e-02, -3.44548412e-02, -2.41894666e-02,
         2.25517973e-01],
       [ 1.13236375e-01,  1.22592404e-01,  2.40084857e-01,
         1.37128785e-01,  6.24374836e-04,  9.68192890e-02,
        -1.70624122e-01, -1.30902305e-01, -7.13465139e-02,
         2.42070034e-02,  3.63995545e-02,  4.86000329e-02,
         7.03096762e-02, -1.91115271e-02, -2.15054117e-03,
         2.81696856e-01],
       [ 2.39774972e-01,  2.36424744e-01,  5.47315538e-01,
         2.95660168e-01,  1.63009705e-03,  1.89766303e-01,
        -2.53864765e-01, -1.80948749e-01, -7.22957179e-02,
         6.91024512e-02,  1.03315376e-01,  1.46901175e-01,
         2.11046174e-01, -4.10752557e-03,  7.42755681e-02,
         5.93450248e-01],
       [ 1.61236197e-01,  4.19626623e-01, -3.29874396e-01,
        -6.24117367e-02,  1.37128746e-02,  4.36495423e-01,
         7.27649927e-01,  6.18757963e-01,  5.90393662e-01,
         3.39007884e-01,  3.76388997e-01,  4.70494151e-01,
         3.04374933e-01,  4.54714209e-01,  3.54279429e-01,
        -5.43827593e-01],
       [ 3.05461995e-02,  3.27250622e-02,  4.43050526e-02,
         2.51973830e-02,  3.04310524e-04,  4.51796986e-02,
        -3.29583697e-02, -5.60709573e-02, -3.07156108e-02,
        -1.58694061e-03,  1.74746162e-03,  1.72897913e-02,
         9.43600014e-03, -3.38524990e-02, -1.06123146e-02,
         4.78875861e-02],
       [ 1.92226976e-01,  1.08659148e-01,  5.06600380e-01,
         2.71834582e-01,  6.44582091e-04,  1.60567045e-01,
        -2.91775852e-01, -2.09464937e-01, -1.16648659e-01,
         9.58110541e-02,  8.01452026e-02,  1.02415420e-01,
         1.75517008e-01, -4.62221541e-03,  1.79287288e-02,
         5.97049892e-01],
       [ 9.99325216e-02,  6.26741126e-02,  2.74871081e-01,
         1.41640857e-01,  3.07346316e-04,  3.82434912e-02,
        -1.92284718e-01, -1.45210966e-01, -1.04306370e-01,
         1.67743326e-03, -5.61469840e-03,  2.51777307e-03,
         4.78834175e-02, -8.82181600e-02, -2.14284807e-02,
         3.20224881e-01],
       [ 1.62578955e-01,  4.72731471e-01, -2.58875281e-01,
        -5.87064512e-02, -3.64141613e-02,  3.37228358e-01,
         7.15171814e-01,  5.54123461e-01,  5.99168420e-01,
         3.89785409e-01,  4.45961505e-01,  3.59393805e-01,
         3.41431558e-01,  5.77430964e-01,  4.04662281e-01,
        -4.21916932e-01],
       [ 3.39090936e-02,  2.64513828e-02,  2.48288121e-02,
         2.90121138e-02, -4.92011197e-04,  6.32466888e-03,
         1.22381765e-02, -1.07038282e-02, -1.12227187e-03,
         6.67428132e-03,  1.15090506e-02,  2.22731605e-02,
         2.15000585e-02, -1.47319240e-02,  7.19602872e-03,
         1.20215467e-03],
       [ 6.12270273e-02,  5.55580743e-02,  1.53156489e-01,
         6.93183839e-02,  1.07685826e-03,  4.22122478e-02,
        -1.47760987e-01, -1.08791158e-01, -6.33987486e-02,
        -7.08235893e-03,  5.14521147e-04,  1.81947015e-02,
         3.09987534e-02, -5.14082536e-02, -1.77265871e-02,
         1.82059690e-01],
       [ 1.21387400e-01,  9.74516794e-02,  3.93046170e-01,
         2.04276800e-01,  1.01589842e-03,  7.74505734e-02,
        -2.29056939e-01, -1.91678300e-01, -1.29844815e-01,
        -3.24766384e-03, -8.19644239e-03,  1.77009441e-02,
         8.17150921e-02, -1.11201093e-01, -2.06071436e-02,
         4.80605692e-01],
       [ 8.22137296e-02,  4.90012765e-02,  1.21536590e-01,
         9.58846584e-02,  1.16302457e-03,  3.85431275e-02,
        -7.97484592e-02, -6.98386356e-02, -3.31563540e-02,
         1.61265060e-02,  1.93627514e-02,  1.70899164e-02,
         4.18695621e-02, -3.79316732e-02,  8.92208796e-03,
         7.68549219e-02],
       [ 2.34084297e-02,  2.92595755e-02,  6.96909130e-02,
         4.29995432e-02,  7.55620829e-04,  7.55639654e-03,
        -7.89141208e-02, -4.58109155e-02, -1.29870977e-02,
         4.68701497e-03, -8.50222539e-04,  1.54128857e-02,
         2.31422242e-02, -4.03673463e-02, -2.74026440e-03,
         5.05836532e-02],
       [ 1.27367256e-03,  4.29007132e-03, -1.34401431e-03,
         2.77025439e-03,  5.20655158e-06,  3.42547242e-03,
         7.65196327e-03,  9.76524199e-04,  7.79652782e-03,
         6.62413379e-03,  7.14513101e-03,  1.79605465e-03,
         3.82425380e-03,  6.13974687e-03,  1.43106654e-03,
        -5.08120144e-03],
       [ 2.24135086e-01,  4.22664762e-01, -1.68359220e-01,
         9.69980881e-02, -2.52773985e-02,  2.93588549e-01,
         6.00847304e-01,  5.08808374e-01,  4.70155120e-01,
         4.16272968e-01,  3.82011235e-01,  4.24546689e-01,
         2.50869155e-01,  3.33402336e-01,  4.07939762e-01,
        -3.38885337e-01],
       [ 9.53769535e-02,  1.29553705e-01,  2.42434680e-01,
         1.32453084e-01,  1.18907995e-03,  3.98002006e-02,
        -1.43225312e-01, -1.10532038e-01, -5.54501936e-02,
         2.22295392e-02,  4.24892642e-03,  6.38680384e-02,
         8.13769549e-02, -5.83695248e-02, -9.93953831e-03,
         3.06455433e-01],
       [ 9.41775814e-02,  6.27035350e-02,  2.17436388e-01,
         1.23596042e-01,  3.04180401e-04,  1.10897735e-01,
        -1.61331370e-01, -1.41488820e-01, -9.63906199e-02,
         1.37943411e-02,  6.70662224e-02,  3.97877693e-02,
         8.12140703e-02, -4.81276475e-02, -3.18043912e-03,
         2.66953558e-01],
       [ 1.02639943e-02, -1.56496242e-02,  2.44838409e-02,
         5.62517764e-03,  8.03291216e-04, -2.63048951e-02,
        -6.93497658e-02, -5.69887571e-02, -5.28168082e-02,
        -2.46936008e-02, -1.67274363e-02, -4.34684455e-02,
        -1.04915826e-02, -6.57411814e-02, -1.51716694e-02,
         5.55093363e-02],
       [ 1.04542924e-02, -2.11881404e-03,  3.34665664e-02,
         1.18206050e-02,  3.09295228e-06,  1.61755946e-04,
        -3.57166342e-02, -1.58457737e-02, -2.76143830e-02,
         5.61517198e-04,  8.39846558e-04, -1.25090498e-02,
         1.12368166e-02, -1.52555611e-02, -8.24239384e-03,
         4.14602011e-02],
       [ 3.09445202e-01,  4.28880423e-01, -3.29570994e-02,
         1.26876220e-01, -2.30494384e-02,  2.80034870e-01,
         6.16207302e-01,  5.41615307e-01,  5.43491423e-01,
         4.82078612e-01,  3.94333392e-01,  5.26325583e-01,
         2.95277715e-01,  3.74673247e-01,  4.34440702e-01,
        -2.45212957e-01],
       [ 2.18337983e-01,  1.68549761e-01,  5.98582864e-01,
         2.43678749e-01,  1.49320252e-03,  1.59524843e-01,
        -3.33868742e-01, -2.46288583e-01, -1.22574367e-01,
         7.26119578e-02,  7.97611922e-02,  1.02621488e-01,
         1.70798793e-01, -3.64898071e-02,  9.16579086e-03,
         7.51530588e-01],
       [ 1.56177074e-01,  1.87416077e-01,  3.76418263e-01,
         1.73854545e-01,  8.05932796e-04,  6.70045242e-02,
        -1.92771852e-01, -1.44088820e-01, -7.19689205e-02,
         6.24091178e-02,  8.24305043e-02,  6.90999478e-02,
         9.01348814e-02, -4.05170768e-02,  1.46217002e-02,
         4.65067357e-01],
       [ 1.51471362e-01,  1.07192613e-01,  3.86426300e-01,
         2.17550322e-01,  1.37254698e-04,  4.59716059e-02,
        -2.51429021e-01, -1.96262091e-01, -1.31112695e-01,
         3.20591070e-02,  3.66990678e-02,  3.12914662e-02,
         8.24892148e-02, -1.26112059e-01, -1.09800836e-02,
         4.35745656e-01],
       [ 1.38634354e-01,  1.12218246e-01,  3.01185727e-01,
         1.79334104e-01, -1.94612890e-04,  7.61528239e-02,
        -1.14668258e-01, -1.13151386e-01, -5.50277308e-02,
         4.22940552e-02,  6.32086098e-02,  6.95544407e-02,
         1.13077857e-01, -4.68049832e-02,  2.00927611e-02,
         2.94117421e-01],
       [ 3.94949131e-02,  2.81447954e-02,  6.85382336e-02,
         3.80662717e-02,  4.59597155e-04,  1.29739484e-02,
        -6.13501072e-02, -4.28366736e-02, -4.35122550e-02,
        -1.17789274e-02,  1.93748856e-03, -1.83277938e-03,
         1.10988962e-02, -5.45993373e-02, -1.46303484e-02,
         5.86909987e-02],
       [ 5.94310574e-02,  4.33064774e-02,  1.29127026e-01,
         7.41469786e-02,  2.43508810e-04,  2.38345899e-02,
        -3.36045586e-02, -3.59369479e-02, -1.88499335e-02,
         8.57071579e-03,  5.96527057e-03,  3.09912357e-02,
         3.60993482e-02, -3.66179012e-02,  2.77891359e-03,
         1.25677094e-01],
       [ 7.64185637e-02,  7.57924244e-02,  1.46426573e-01,
         8.82467255e-02,  3.72014823e-04,  4.44822833e-02,
        -5.63215688e-02, -4.08067927e-02, -1.08902110e-02,
         2.11062487e-02,  2.82312259e-02,  5.18912748e-02,
         4.78555374e-02, -2.41458621e-02,  4.33333730e-03,
         1.39170274e-01],
       [ 5.14584780e-02,  2.04984508e-02,  1.14787593e-01,
         7.11822808e-02, -5.59536420e-06, -2.81972974e-03,
        -9.43184197e-02, -6.24741241e-02, -4.36333045e-02,
        -2.75837979e-03,  2.64640292e-03,  3.25910235e-03,
         2.54095662e-02, -5.06196804e-02, -9.58688650e-03,
         1.39090940e-01],
       [ 4.48769107e-02,  3.60396691e-02,  1.55420989e-01,
         7.79681504e-02, -1.01850100e-03, -5.85868629e-03,
        -1.25361636e-01, -9.81053784e-02, -5.06473482e-02,
        -2.17815526e-02, -2.70921551e-02,  1.09488722e-02,
         2.19372641e-02, -8.48614648e-02, -3.20143290e-02,
         2.16677621e-01],
       [ 1.28847957e-01,  8.21205378e-02,  4.08114344e-01,
         2.10718200e-01,  1.30592985e-03,  9.33293700e-02,
        -2.93898165e-01, -2.26962388e-01, -1.50039852e-01,
        -7.98321702e-03,  2.16833651e-02,  2.69347355e-02,
         8.46618935e-02, -6.02947399e-02, -1.60548668e-02,
         5.50310671e-01],
       [ 1.60022348e-01,  4.77358580e-01, -3.33622098e-01,
        -2.61732563e-02,  7.53815239e-03,  2.68590093e-01,
         7.13930547e-01,  5.80787003e-01,  5.96394897e-01,
         3.50796640e-01,  3.36659342e-01,  4.31909382e-01,
         3.33355129e-01,  5.68050623e-01,  3.35155010e-01,
        -4.84593958e-01],
       [ 2.88843989e-01,  1.38094768e-01,  6.32144332e-01,
         3.49346936e-01,  6.45883940e-03,  2.17568815e-01,
        -3.03906679e-01, -1.45732731e-01, -6.82338476e-02,
         6.60498962e-02,  1.07670575e-01,  7.89430663e-02,
         1.96614847e-01, -5.36410660e-02,  1.25304714e-01,
         7.92098224e-01],
       [ 2.24225998e-01,  1.58917606e-01,  5.20157814e-01,
         2.55251050e-01,  1.12456316e-03,  9.39043239e-02,
        -3.07205677e-01, -1.97910890e-01, -9.93581265e-02,
         9.85968560e-02,  6.30577132e-02,  1.13353990e-01,
         2.11191595e-01, -4.06936668e-02,  7.80199021e-02,
         5.88064969e-01],
       [ 2.11450294e-01,  3.32263738e-01, -2.78113663e-01,
         2.58078449e-03,  1.00439806e-02,  3.92219663e-01,
         7.15768337e-01,  6.74838960e-01,  5.67336082e-01,
         3.88010681e-01,  3.45926493e-01,  5.46254635e-01,
         2.28661746e-01,  3.90500784e-01,  3.72423798e-01,
        -4.22906578e-01],
       [ 2.10670143e-01,  1.14190757e-01,  5.03719687e-01,
         2.67168343e-01,  2.35023210e-03,  1.11591175e-01,
        -2.67302305e-01, -2.02139512e-01, -1.01644509e-01,
         1.35849610e-01,  5.61010204e-02,  5.44464327e-02,
         1.83849141e-01,  3.62411812e-02,  3.71533521e-02,
         6.39060080e-01],
       [ 9.59963538e-03, -2.27633817e-03,  4.29729521e-02,
         2.05713566e-02,  4.66913480e-04, -1.40002305e-02,
        -5.07498346e-02, -5.43258153e-02, -3.37637365e-02,
        -1.53568788e-02, -1.27560096e-02, -7.09750596e-03,
         4.24732501e-03, -5.24759516e-02, -1.23666935e-02,
         3.72049436e-02],
       [ 2.94018060e-01,  3.78638923e-01, -3.23949195e-02,
         1.65093347e-01, -2.01350208e-02,  4.56125617e-01,
         6.13408566e-01,  6.30383492e-01,  5.80694318e-01,
         3.28106165e-01,  5.39236009e-01,  5.16415894e-01,
         2.36739233e-01,  4.10645187e-01,  4.11796451e-01,
        -2.47088179e-01],
       [ 7.02812672e-02,  2.17718799e-02,  3.14049155e-01,
         1.34461612e-01,  1.63978280e-03,  2.99845058e-02,
        -2.80333221e-01, -2.34962717e-01, -1.53585151e-01,
        -4.02819365e-02, -5.67965247e-02, -1.52992029e-02,
         3.14475000e-02, -1.63258597e-01, -5.89618422e-02,
         4.46678132e-01],
       [ 2.97257174e-02,  2.33577378e-02,  1.29021853e-01,
         5.54954521e-02,  4.85800032e-04, -1.36875836e-02,
        -1.24810129e-01, -1.01268984e-01, -7.88395628e-02,
        -2.59119980e-02, -4.42937613e-02, -2.95973237e-04,
         1.27033321e-02, -9.64920223e-02, -4.76142876e-02,
         2.10768878e-01],
       [ 6.57063872e-02,  4.62039970e-02,  1.67080477e-01,
         1.00556046e-01, -3.84748739e-04,  2.09361911e-02,
        -5.91622069e-02, -7.46551380e-02, -3.00394800e-02,
         1.69432024e-05, -6.20435411e-03,  3.32794413e-02,
         4.79495637e-02, -7.03487620e-02,  9.47481114e-03,
         2.03108668e-01],
       [ 1.05633453e-01,  6.00320883e-02,  4.11338687e-01,
         1.72702283e-01,  4.89581143e-04,  1.86513383e-02,
        -3.02861094e-01, -2.47350037e-01, -1.65246844e-01,
        -2.66057700e-02, -6.14318661e-02, -6.56994944e-03,
         4.61491980e-02, -1.47064269e-01, -5.81748784e-02,
         5.65985918e-01],
       [ 4.60545830e-02,  6.12537796e-03,  1.33478671e-01,
         7.01868609e-02, -3.48504720e-04, -2.82627810e-03,
        -9.40051824e-02, -7.17859417e-02, -5.62434196e-02,
        -8.11253581e-03, -2.17237696e-02, -6.18550088e-03,
         2.13945303e-02, -6.92659691e-02, -3.55170807e-03,
         1.80351749e-01],
       [ 1.19975265e-02,  8.54352396e-03,  5.49479481e-03,
        -1.28042826e-03,  2.42045469e-04,  7.29559315e-03,
        -1.62225869e-02,  5.76747116e-04, -2.20169476e-03,
         4.40760003e-03,  9.00575193e-04,  3.71145457e-03,
         4.89174295e-03, -1.29492693e-02,  1.29716974e-02,
        -4.30279598e-02],
       [ 1.99524686e-01,  4.20429111e-01, -2.69866735e-01,
        -1.44329164e-02, -4.00867611e-02,  2.61588901e-01,
         6.75533712e-01,  5.90585470e-01,  4.97948706e-01,
         4.39598054e-01,  5.07281542e-01,  3.98763120e-01,
         3.94196957e-01,  4.33500618e-01,  4.07093406e-01,
        -5.18420458e-01],
       [ 1.80344015e-01,  1.47322208e-01,  6.33890867e-01,
         3.02967548e-01,  2.35023140e-03,  5.06874211e-02,
        -4.11578357e-01, -3.07667583e-01, -1.43900424e-01,
        -2.50542071e-02, -8.51488113e-03,  1.26165241e-01,
         1.41759112e-01, -1.73537076e-01, -5.19779772e-02,
         9.37495649e-01],
       [ 2.72083674e-02,  2.26431200e-03,  1.15607485e-01,
         4.40799072e-02,  8.35933024e-04, -1.77315455e-02,
        -1.23285346e-01, -8.09075013e-02, -7.70758986e-02,
        -2.52027381e-02, -1.87082645e-02, -1.33059425e-02,
         3.62378289e-03, -8.00761878e-02, -2.50724033e-02,
         1.65102154e-01],
       [ 4.12884653e-02,  2.02765297e-02,  9.30838659e-02,
         6.27424270e-02,  2.07801093e-03, -3.11483536e-03,
        -4.51097526e-02, -6.17568754e-02, -3.52685191e-02,
        -5.34412218e-03, -1.49352634e-02,  1.03190457e-02,
         1.99240334e-02, -6.81637749e-02, -1.75476540e-02,
         1.64861307e-01],
       [ 1.58002228e-02,  5.44114923e-03,  3.07484083e-02,
         1.76412705e-02, -1.02732884e-05,  1.22732809e-03,
        -2.38160677e-02, -2.02277750e-02, -1.52463019e-02,
        -6.51109731e-03, -1.49967782e-02,  1.83832273e-03,
         2.78665475e-03, -3.03055495e-02, -1.28355017e-02,
         5.36093749e-02],
       [ 2.54842252e-01,  4.54661101e-01, -3.15067798e-01,
         8.32384545e-03, -6.17174804e-02,  3.74226421e-01,
         7.01130271e-01,  5.64505875e-01,  5.23900032e-01,
         5.04687011e-01,  4.02202398e-01,  5.18480659e-01,
         2.56730020e-01,  4.34058100e-01,  3.39189440e-01,
        -6.31747961e-01],
       [-2.95581413e-04,  7.35119102e-05, -2.27927975e-02,
        -5.70030301e-04,  6.87229185e-05, -2.57788575e-03,
         1.47881894e-03,  3.60525679e-04, -1.07769552e-03,
        -4.19784337e-04,  2.45733466e-03, -5.14587061e-03,
         1.79171516e-03, -4.84831538e-03,  8.58908705e-03,
        -2.11725682e-02],
       [ 1.00272261e-01,  3.88148092e-02,  3.71836960e-01,
         1.73664421e-01,  1.56563043e-03,  4.76668356e-03,
        -2.21535146e-01, -2.00651780e-01, -1.22294612e-01,
        -3.27552930e-02, -5.68405166e-02,  4.45617270e-03,
         5.29694222e-02, -1.55598789e-01, -4.12135497e-02,
         4.54177946e-01],
       [ 3.42795163e-01,  3.88904601e-01,  9.99344587e-02,
         2.09058657e-01, -6.75024986e-02,  4.66602027e-01,
         4.78759170e-01,  4.67426479e-01,  3.43611151e-01,
         4.55567211e-01,  3.41785848e-01,  3.50724399e-01,
         2.22275749e-01,  3.40174317e-01,  4.11317706e-01,
         3.38410400e-02],
       [ 2.36338213e-01,  2.54302621e-01,  6.32842422e-01,
         3.05280238e-01,  1.93988875e-04,  6.09733015e-02,
        -3.68388355e-01, -2.56632537e-01, -1.28799751e-01,
         9.22776237e-02,  3.70297469e-02,  1.30954728e-01,
         1.34576827e-01, -1.38903186e-01, -2.16827076e-03,
         8.30600917e-01],
       [ 1.46907389e-01,  1.70043319e-01,  4.44892168e-01,
         1.98067531e-01, -2.54553917e-04,  1.59829512e-01,
        -2.12746724e-01, -1.68551594e-01, -6.39378279e-02,
         3.97931598e-02,  7.45737599e-03,  1.24560587e-01,
         1.53151825e-01, -1.07159980e-01,  1.40271559e-02,
         5.95593631e-01],
       [ 7.99800009e-02,  8.83197039e-02,  1.89728931e-01,
         1.17568441e-01,  1.31169916e-03,  3.39178704e-02,
        -1.40742660e-01, -1.20305166e-01, -7.43398890e-02,
        -1.94770040e-03,  1.48191601e-02,  3.81048098e-02,
         5.45221306e-02, -7.25265741e-02, -1.20658483e-02,
         2.71032572e-01],
       [ 1.16091578e-04, -8.45622199e-05, -1.06136904e-05,
        -2.60103243e-05, -1.84333858e-05,  3.12288612e-05,
        -7.10139429e-05, -9.30203460e-05,  3.35083532e-05,
         1.05191339e-05, -1.28516040e-05,  4.79176288e-06,
         1.72231321e-05,  6.08319897e-05,  3.88319677e-05,
         1.18662661e-04],
       [ 2.78414581e-02,  1.28977150e-02,  2.40225330e-01,
         8.21172297e-02,  4.93093918e-04, -1.43871047e-02,
        -2.28144795e-01, -1.81515306e-01, -1.04497336e-01,
        -6.85160235e-02, -8.51835757e-02, -2.04201788e-03,
        -4.91406862e-03, -1.43759266e-01, -8.06295276e-02,
         4.36219543e-01],
       [ 1.14390627e-01,  6.58911690e-02,  3.30837667e-01,
         1.54419005e-01,  6.82958344e-04,  3.55704501e-02,
        -2.21815735e-01, -1.83087140e-01, -1.17381997e-01,
        -8.10810772e-04,  6.43338636e-03,  7.49525195e-03,
         6.23361394e-02, -1.16462328e-01, -1.24166580e-02,
         3.91108185e-01],
       [ 2.05630437e-02, -2.63822265e-03,  6.93824887e-02,
         2.96220202e-02,  5.43311704e-04, -2.73763258e-02,
        -1.31783962e-01, -9.89935026e-02, -6.81980774e-02,
        -4.13791128e-02, -4.29488868e-02, -1.51936468e-02,
        -1.24447672e-02, -9.45595652e-02, -4.44498286e-02,
         1.46305546e-01],
       [ 6.83543682e-02,  4.11290005e-02,  7.77925402e-02,
         7.25877136e-02,  6.67579356e-04,  2.73108650e-02,
        -1.15614180e-02, -3.27734202e-02, -1.38244731e-02,
         2.24874485e-02,  2.78751682e-02,  2.53597833e-02,
         4.53214869e-02, -3.02309804e-02,  1.68894846e-02,
         2.65430436e-02],
       [ 6.83135018e-02,  4.07977402e-02,  2.38109559e-01,
         1.11372501e-01,  8.99430714e-04, -6.39262609e-03,
        -1.57184109e-01, -1.38588890e-01, -9.68869925e-02,
        -2.62268260e-02, -4.38566618e-02,  8.82885884e-04,
         3.08476985e-02, -1.09098956e-01, -4.35603820e-02,
         3.27129066e-01],
       [ 4.87545617e-02,  2.45455117e-03,  1.55547068e-01,
         5.20007312e-02,  1.40959036e-03, -3.65447290e-02,
        -1.45623446e-01, -1.25366405e-01, -1.16858669e-01,
        -4.11208123e-02, -4.28488925e-02, -5.14551066e-02,
        -1.04734143e-02, -1.09241813e-01, -4.52302061e-02,
         2.06728324e-01],
       [ 3.91994789e-02,  5.41747641e-03,  1.20821662e-01,
         6.21726923e-02,  9.28694790e-04, -3.03069912e-02,
        -1.06237240e-01, -9.56805944e-02, -6.18870594e-02,
        -3.30711976e-02, -3.96332629e-02, -1.09860282e-02,
         1.42554136e-03, -1.05352454e-01, -2.77106054e-02,
         2.33604893e-01],
       [ 1.44306896e-02,  2.28226148e-02, -2.59324387e-02,
         5.52627584e-03,  2.05646968e-03,  3.59747163e-03,
         2.40648352e-02,  1.34324525e-02,  7.84022640e-03,
         8.61042645e-03,  6.16990775e-03,  2.10533142e-02,
         5.57793910e-03, -2.28606686e-02, -1.88588048e-03,
        -7.11316690e-02],
       [ 5.75716794e-02,  4.03340571e-02,  1.13487370e-01,
         7.59809315e-02, -1.04321458e-03,  3.22522558e-02,
        -5.20844124e-02, -3.66888195e-02, -2.11585388e-02,
         2.00846139e-02,  1.16789890e-02,  1.76342800e-02,
         4.22788374e-02, -2.14422271e-02,  1.36741586e-02,
         1.26379341e-01],
       [ 8.53498746e-03,  2.77286838e-03,  4.09707129e-02,
         1.96892899e-02,  3.61775921e-04, -1.19195217e-02,
        -7.15159550e-02, -4.33183499e-02, -3.52343544e-02,
        -1.14315571e-02, -1.59798004e-02, -3.34655605e-02,
        -3.82437813e-03, -6.12597391e-02, -2.97661591e-02,
         7.35442117e-02],
       [ 5.34486920e-02, -3.45432153e-03,  2.46514231e-01,
         1.09112673e-01,  1.76552776e-03, -3.13195996e-02,
        -1.50868133e-01, -1.51523903e-01, -1.02749333e-01,
        -4.94271517e-02, -6.21372797e-02, -2.58130059e-02,
         3.74742504e-03, -1.50577232e-01, -4.75218818e-02,
         3.62349361e-01],
       [ 2.58016177e-02,  2.10024454e-02,  5.07236645e-02,
         1.30204866e-02,  9.55721654e-04,  7.57486373e-03,
        -3.29317898e-03, -3.26029933e-03, -5.74222673e-03,
         1.71544552e-02,  1.58813111e-02,  7.91200809e-03,
         1.78327374e-02, -4.44985344e-04,  1.45219099e-02,
         2.78835427e-02],
       [ 2.36928210e-01,  3.10733259e-01, -2.51735836e-01,
         3.20483558e-02, -6.94090687e-03,  3.92891705e-01,
         6.76362514e-01,  6.26364529e-01,  4.60983157e-01,
         4.57984388e-01,  3.54817331e-01,  5.21323502e-01,
         3.01718593e-01,  4.20596093e-01,  3.96072149e-01,
        -4.41277564e-01],
       [ 5.64949028e-02,  5.41979671e-02,  1.72559544e-01,
         7.95768425e-02,  7.99718546e-04,  2.05539539e-02,
        -1.40715212e-01, -9.12018120e-02, -5.06603718e-02,
        -9.14276019e-03, -1.63176395e-02,  1.88768022e-02,
         2.56990734e-02, -7.76166096e-02, -3.39835137e-02,
         2.48018607e-01],
       [ 6.26841858e-02,  7.32092485e-02,  2.07181707e-01,
         9.89648029e-02,  5.59020962e-04,  4.04014885e-02,
        -1.40170753e-01, -1.09665014e-01, -6.08289540e-02,
        -4.79572860e-04, -2.64038444e-02,  5.22275828e-02,
         3.82498764e-02, -8.28226283e-02, -3.37480120e-02,
         2.70853639e-01],
       [ 7.03839213e-02,  7.93228447e-02,  2.40609348e-01,
         1.11771286e-01,  4.48233186e-04,  3.34616601e-02,
        -1.22010067e-01, -9.78838578e-02, -4.95562069e-02,
         4.85394336e-03, -1.24057792e-02,  5.75349517e-02,
         5.66921011e-02, -6.56405985e-02, -2.35091094e-02,
         3.19904685e-01],
       [ 8.54868740e-02,  1.00344658e-01,  2.58888215e-01,
         1.27635956e-01,  6.72120135e-04,  7.25848377e-02,
        -1.67304024e-01, -1.21392347e-01, -5.93852401e-02,
         8.32129735e-03, -4.42699390e-03,  6.13804162e-02,
         5.31222709e-02, -8.80289227e-02, -8.94555636e-03,
         3.21262270e-01],
       [ 5.98201877e-05, -3.23490985e-02,  1.56219795e-01,
         3.05303372e-02,  5.01807895e-04, -6.47315681e-02,
        -2.24453017e-01, -1.80037498e-01, -1.30044013e-01,
        -8.96756127e-02, -1.11571096e-01, -3.54440138e-02,
        -3.97403650e-02, -1.69084072e-01, -1.02922589e-01,
         3.91271114e-01],
       [ 7.32935145e-02,  6.44534975e-02,  1.34155452e-01,
         8.32283646e-02, -9.34196345e-04,  5.01304306e-02,
        -4.50496636e-02, -3.63050438e-02, -2.64550261e-02,
         2.07168479e-02,  2.31822785e-02,  3.38867866e-02,
         5.22686541e-02, -4.12010700e-02,  1.29357520e-02,
         1.43369496e-01],
       [ 2.84070559e-02,  2.80843535e-03,  1.97576955e-01,
         6.90973327e-02,  8.80426087e-04, -5.29030822e-02,
        -1.94747493e-01, -1.76411301e-01, -1.27717048e-01,
        -5.42089939e-02, -7.14995116e-02, -2.98143327e-02,
        -1.41113792e-02, -1.54724449e-01, -7.63799101e-02,
         3.51602435e-01],
       [ 2.20687798e-06, -4.46181621e-05,  1.63830664e-05,
        -2.38230914e-05,  3.17443482e-05,  4.86269564e-05,
        -6.11211726e-05, -8.36292311e-05,  1.47829269e-05,
        -1.93216347e-05, -1.15835377e-04, -6.50155198e-06,
         6.36356272e-05,  6.88608270e-05,  6.21997606e-05,
        -3.34345605e-05],
       [ 4.55534048e-02,  3.67915295e-02,  5.20876609e-02,
         5.36167100e-02,  4.50009829e-04,  2.04402097e-02,
        -1.85466483e-02, -2.61452179e-02, -9.38612316e-03,
         4.82411729e-03,  6.19832240e-03,  1.89175159e-02,
         3.21230888e-02, -3.94671336e-02,  7.58078089e-03,
         4.08037938e-02],
       [ 6.24095313e-02,  5.31357974e-02,  1.45811453e-01,
         7.81145915e-02,  5.46244613e-04,  2.70731412e-02,
        -2.69273091e-02, -4.05918658e-02, -5.07036271e-03,
         8.00496340e-03,  5.54955145e-03,  4.60182428e-02,
         4.33047935e-02, -3.81281711e-02, -1.71109743e-04,
         1.40504152e-01],
       [ 2.90346295e-02,  7.59796984e-03,  1.08309120e-01,
         5.10974787e-02,  4.40612726e-04, -6.50482625e-03,
        -7.25183859e-02, -6.61435798e-02, -4.66786809e-02,
        -1.78497229e-02, -1.60045493e-02, -7.82808103e-03,
         2.76306011e-02, -6.69468269e-02, -8.43125768e-03,
         1.47792220e-01],
       [ 1.13752279e-02, -2.03885660e-02,  9.99346301e-02,
         2.62508187e-02,  9.37893870e-04, -4.68258262e-02,
        -1.04945347e-01, -8.68745372e-02, -5.91137782e-02,
        -3.89711447e-02, -4.83059585e-02, -2.91208606e-02,
        -1.72411222e-02, -9.81460661e-02, -3.90965492e-02,
         1.24944292e-01],
       [ 5.15486002e-02,  4.62480821e-02,  5.81099465e-02,
         4.00952958e-02,  1.20305130e-03,  2.55497154e-02,
         1.02624977e-02, -1.95445083e-02,  4.42231307e-03,
         2.95288134e-02,  1.43870711e-02,  3.71095836e-02,
         3.33930962e-02, -1.34948995e-02,  7.45303044e-03,
         6.27901405e-02],
       [-5.03446092e-04, -1.77618340e-02,  5.91826960e-02,
         2.63238382e-02,  4.82698495e-04, -3.52026299e-02,
        -9.27737355e-02, -7.00346455e-02, -5.70876412e-02,
        -3.19402106e-02, -3.45696211e-02, -4.01797220e-02,
        -9.32914205e-03, -7.38852397e-02, -2.90578473e-02,
         7.20259696e-02],
       [ 1.70823550e-05,  6.19135099e-05,  3.23978966e-05,
        -8.64120375e-05,  4.39487440e-06,  2.06687946e-06,
        -6.26666733e-05, -2.06203713e-05, -5.24818934e-05,
        -7.64716424e-06,  1.05156323e-05, -1.08252643e-04,
        -4.02238802e-05, -1.50077831e-05,  4.80160961e-05,
        -7.34720816e-05],
       [ 3.40842735e-03, -1.35269081e-02,  6.99494630e-02,
         1.38747822e-02, -4.46772086e-04, -1.33837909e-02,
        -4.25658859e-02, -3.06216665e-02, -4.34096046e-02,
        -1.98186953e-02, -2.68341601e-02, -1.54794585e-02,
        -1.35780126e-02, -3.55856083e-02, -2.67426763e-02,
         9.15273651e-02],
       [-4.59984038e-03,  1.52088199e-02, -2.79697543e-03,
         7.52828899e-04,  1.66447244e-05,  9.82525665e-03,
         2.19707582e-02,  1.17553230e-02,  1.30971493e-02,
         3.01739085e-03,  1.25736604e-02,  6.74492121e-03,
         7.96328578e-03,  3.09307221e-03,  1.08977892e-02,
         2.84569152e-02],
       [ 1.79494191e-02, -9.73571651e-03,  6.36304030e-03,
         3.24103725e-03, -3.98124917e-04, -2.35176589e-02,
        -4.14232984e-02, -3.46825831e-02, -2.44673975e-02,
        -1.97486877e-02, -1.72268450e-02, -8.95423256e-03,
        -5.40889334e-03, -4.53658402e-02, -1.65261813e-02,
        -2.99471105e-03],
       [ 2.89328039e-01,  4.64654475e-01, -9.99843553e-02,
         5.32524362e-02, -8.27195938e-04,  4.52952057e-01,
         6.07246339e-01,  5.82844734e-01,  5.11794806e-01,
         3.38090152e-01,  5.10971248e-01,  3.84046972e-01,
         4.12962675e-01,  3.89520675e-01,  3.99060965e-01,
        -2.89496452e-01],
       [ 1.16889760e-01,  7.72933438e-02,  2.59421885e-01,
         1.40563339e-01,  4.14621900e-04,  7.38473162e-02,
        -1.31698236e-01, -9.43216681e-02, -4.33771051e-02,
         3.05494312e-02,  2.59423386e-02,  3.79415341e-02,
         7.54899904e-02, -4.49906178e-02,  2.00522915e-02,
         2.51319826e-01],
       [ 1.38498440e-01,  7.89539069e-02,  3.57564747e-01,
         1.97795212e-01,  1.43593724e-03,  5.04928902e-02,
        -2.15025201e-01, -1.64369762e-01, -1.01341575e-01,
         1.94375776e-02,  1.10581340e-02,  3.23262624e-02,
         9.03679281e-02, -8.00508186e-02,  4.52716788e-03,
         3.86101574e-01],
       [ 1.28695101e-01,  1.07465670e-01,  3.86779130e-01,
         1.91802993e-01,  8.63235909e-04,  5.19445017e-02,
        -2.25839302e-01, -1.80867136e-01, -1.03930026e-01,
         1.56864524e-02,  8.86573922e-03,  4.13832031e-02,
         9.05179009e-02, -9.13171917e-02, -3.26388306e-03,
         4.59652990e-01],
       [ 1.43786013e-01,  9.31493640e-02,  3.61634165e-01,
         1.97940975e-01,  3.04619985e-04,  5.50908931e-02,
        -2.11192742e-01, -1.72783509e-01, -9.31935310e-02,
         2.27357093e-02,  2.67105196e-02,  2.67009102e-02,
         9.39542055e-02, -9.36190709e-02,  7.16845924e-03,
         3.62322927e-01],
       [ 9.16954428e-02,  7.96079636e-02,  1.46547481e-01,
         1.07817598e-01,  9.44473722e-05,  7.28468746e-02,
        -6.69346973e-02, -6.38264790e-02, -3.10521089e-02,
         3.56115736e-02,  4.30529937e-02,  4.31325659e-02,
         6.74508214e-02, -2.09083166e-02,  2.41988972e-02,
         1.43420070e-01],
       [ 8.14417750e-02,  4.33243588e-02,  2.16605708e-01,
         1.20556556e-01,  1.32431847e-03,  1.62715688e-02,
        -1.07930422e-01, -9.41855013e-02, -6.18549101e-02,
        -1.79173844e-03, -1.00131286e-02,  1.14812180e-02,
         4.62165922e-02, -8.79155025e-02, -5.81864966e-03,
         2.98093319e-01],
       [ 5.42565137e-02,  3.53979282e-02,  1.41507983e-01,
         8.73256773e-02,  1.42528024e-03,  1.25241457e-02,
        -7.78326467e-02, -7.01349899e-02, -2.88813077e-02,
         2.76955916e-03, -2.90766312e-03,  1.92647241e-02,
         3.38355415e-02, -4.76021245e-02, -6.81796344e-03,
         1.77575558e-01],
       [ 7.38605112e-02,  1.98345184e-02,  2.33525112e-01,
         1.06317990e-01,  1.29776818e-05, -7.48433406e-03,
        -1.46081716e-01, -1.14731863e-01, -8.97179693e-02,
        -5.88049181e-03, -1.10242767e-02, -1.23595195e-02,
         3.92259993e-02, -9.95818377e-02, -1.34380003e-02,
         2.49779269e-01],
       [ 6.00684583e-02,  4.66834120e-02,  1.00425556e-01,
         6.89739436e-02,  7.74635118e-04,  3.06322314e-02,
        -2.78383233e-02, -2.37228088e-02, -1.37358848e-02,
         1.45287076e-02,  1.31164817e-02,  3.26973572e-02,
         4.33570556e-02, -1.81479920e-02,  1.89863369e-02,
         6.88723326e-02],
       [ 3.18875872e-02,  1.78042855e-02,  9.52524468e-02,
         4.58566658e-02,  4.18154057e-04,  7.58553110e-03,
        -1.73956938e-02, -2.42567677e-02, -9.23130102e-03,
         1.02921678e-02,  2.43145670e-03,  1.37803908e-02,
         2.21095476e-02, -2.68301442e-02,  2.03953180e-02,
         9.43483114e-02],
       [-2.67319055e-03, -2.25489438e-02,  1.66282188e-02,
        -7.76906777e-03,  6.74479757e-04, -5.24576120e-02,
        -4.71650250e-02, -4.60586585e-02, -3.41996513e-02,
        -2.71890089e-02, -4.91392054e-02, -3.84936817e-02,
        -2.55995300e-02, -6.98747188e-02, -3.08773983e-02,
         3.34152095e-02],
       [ 2.53569037e-02,  1.90012977e-02,  4.26120348e-02,
         2.72911005e-02,  2.93461722e-04,  1.16493655e-02,
        -4.28142622e-02, -3.16581614e-02, -1.47589361e-02,
         6.16398035e-03,  4.33730893e-03,  8.06512963e-03,
         1.97590478e-02, -1.06820781e-02,  2.89224507e-03,
         4.23892736e-02],
       [ 8.54191091e-03,  1.34625863e-02,  3.22062708e-02,
         2.43336577e-02, -1.10245717e-04, -2.14733090e-03,
        -1.77437179e-02, -2.50583850e-02, -7.92708807e-03,
        -6.77249301e-03, -2.33256929e-02,  2.13836208e-02,
         5.35427872e-03, -3.42942588e-02, -3.20395338e-04,
         5.85273616e-02],
       [ 3.21555771e-02,  3.43420915e-02,  2.52800751e-02,
         4.18682694e-02,  2.36922118e-04,  2.02324316e-02,
        -2.22713575e-02, -1.99390221e-02,  2.54369853e-03,
         1.26530211e-02,  1.43637499e-02,  3.28858085e-02,
         2.56065149e-02, -1.14628226e-02,  6.93341298e-03,
         3.65841500e-02],
       [ 2.29915120e-02,  2.27730721e-02,  2.94253770e-02,
         2.56046765e-02, -1.92128195e-04,  7.77068548e-03,
        -9.54233669e-03, -1.03725903e-02,  2.15001460e-02,
         4.39220527e-03,  8.67559481e-03,  2.25744508e-02,
         3.25363614e-02, -2.97272089e-03,  8.17827322e-03,
         2.60493234e-02],
       [ 1.81227736e-02,  6.54075248e-03,  2.95350924e-02,
         1.49057871e-02,  2.88683223e-05,  4.59725643e-03,
        -8.40390287e-03, -2.30937954e-02, -6.11498777e-04,
         9.71472822e-03,  1.88529503e-03,  5.62755018e-03,
         1.03103472e-02,  1.42088393e-03,  2.20481120e-03,
         2.91573219e-02],
       [ 1.16931982e-02,  5.69551904e-03, -1.12524889e-02,
         2.89639249e-03,  1.06386375e-03,  3.84794839e-04,
         1.31502161e-02,  1.10795777e-02,  8.19329405e-04,
         8.69487412e-03,  6.44301344e-03,  3.31823924e-03,
         2.71095242e-03, -5.61044726e-04,  8.25953670e-03,
        -2.20195279e-02],
       [-3.90741043e-05,  3.49696586e-03,  4.49560471e-02,
         1.38333393e-02,  2.96114522e-05, -5.12092933e-03,
        -2.95413248e-02, -2.28062831e-02, -1.48324501e-02,
        -1.00047942e-02, -2.09603384e-02,  5.34668239e-03,
        -8.20235698e-04, -2.30645314e-02, -1.30649572e-02,
         6.72878474e-02],
       [ 5.89880301e-03, -1.68358651e-03,  1.67180747e-02,
         5.99363679e-03, -1.74962683e-04, -5.24917152e-03,
        -6.11188263e-03, -9.46276542e-03, -1.10130105e-02,
        -2.99879257e-03, -4.52892715e-03, -9.28426627e-03,
         4.58945427e-03, -1.04626240e-02, -5.19609137e-04,
         2.95458641e-02],
       [ 1.31627806e-02, -5.96106052e-03,  2.56429650e-02,
         1.85819827e-02,  2.34342660e-04, -8.20615515e-03,
        -4.13630381e-02, -2.54334323e-02, -1.70695167e-02,
        -6.32679928e-03, -7.81536940e-03, -9.88083333e-03,
         3.03886621e-03, -2.63451189e-02, -4.75478265e-03,
         5.64519465e-02],
       [ 1.09435264e-02, -1.55125221e-04,  4.19994295e-02,
         1.40604088e-02, -3.89305933e-05,  1.78113836e-03,
        -2.29175054e-02, -1.01245549e-02, -1.86961479e-02,
        -4.76466818e-03, -5.29808318e-03,  2.57783709e-03,
        -3.55174229e-03, -1.91072430e-02, -7.68960966e-03,
         3.48408148e-02],
       [ 8.49769078e-03,  1.93209574e-03,  3.81550603e-02,
         2.34278124e-02,  2.89177871e-04, -2.49784952e-03,
        -2.11233720e-02, -2.40207333e-02, -7.64009496e-03,
        -1.51276414e-03,  2.38338922e-04, -6.15659961e-03,
         1.23139154e-02, -2.25088317e-02,  8.62198882e-04,
         6.33471087e-02],
       [ 9.52733215e-03, -5.32711623e-03,  2.14981697e-02,
         7.46577792e-03,  3.70821450e-04, -1.87583957e-02,
        -2.03122087e-02, -1.60592329e-02, -9.87839513e-03,
        -1.26750376e-02, -2.08502263e-02, -5.11633419e-03,
        -5.25360368e-03, -2.63975020e-02, -1.81824900e-02,
         4.24840711e-02],
       [ 1.39592579e-02,  6.86293654e-03,  2.49905903e-02,
         1.08538363e-02, -2.11195351e-04,  3.89992772e-03,
        -8.83227587e-03, -1.50388684e-02, -5.86512312e-03,
        -6.13800716e-04,  7.44520163e-04,  1.59597048e-03,
         3.84529657e-03, -6.85844198e-03,  1.00037886e-03,
         5.24980128e-02],
       [ 1.58705551e-03, -3.32348701e-03,  3.00472714e-02,
        -2.10961839e-03, -1.62242897e-04, -3.07471841e-03,
         2.67976988e-03, -2.28123111e-03, -1.60042252e-02,
        -8.03577714e-03, -3.07979435e-03,  1.37597893e-03,
        -1.09298294e-03, -1.94353759e-02, -5.11530135e-03,
         4.71356437e-02],
       [ 1.32552208e-02,  5.18675242e-03,  1.68071799e-02,
         2.00947411e-02, -1.64646030e-04, -7.27460370e-04,
        -5.54086221e-03, -1.29843131e-02,  5.75859332e-03,
         2.34563323e-03,  4.07756073e-04,  4.24875738e-03,
         8.05118401e-03, -1.24637624e-02,  1.45025144e-04,
         5.57427332e-02],
       [ 4.84156597e-04,  5.16435248e-05,  1.19717438e-02,
         2.06480781e-03,  4.92544586e-06, -3.39662307e-04,
         1.00331753e-03,  4.95961728e-03, -3.99123086e-03,
         1.95472129e-03, -3.10873904e-04,  1.78078073e-03,
        -6.48324494e-04, -3.50895943e-03, -4.38069180e-03,
         1.04823913e-02],
       [ 1.89443409e-01,  3.40811044e-01,  4.07269262e-02,
         9.15041491e-02, -1.41410984e-03,  3.25688004e-01,
         4.00160968e-01,  3.43044251e-01,  2.96483636e-01,
         2.99323171e-01,  2.97258705e-01,  2.87881672e-01,
         2.54630744e-01,  3.73974502e-01,  2.50467449e-01,
        -9.94891375e-02],
       [ 1.10499775e-02,  2.26515112e-04,  1.64672881e-02,
         1.91200357e-02,  9.64113860e-06,  7.36314384e-03,
        -1.06275249e-02, -5.14455419e-03, -4.81601944e-03,
         4.18181531e-03,  1.76268315e-03,  6.90022903e-03,
         6.60593668e-03, -4.78611328e-03, -1.17067294e-03,
         7.49000162e-03],
       [ 2.84818597e-02,  2.16194484e-02,  4.32708673e-02,
         2.36803498e-02, -1.17935351e-05,  1.97985955e-02,
        -1.84116140e-02, -9.53336060e-03,  3.85039835e-04,
         1.09638339e-02,  1.89351011e-02,  2.19066385e-02,
         2.51513459e-02,  7.32985046e-03,  1.22979013e-02,
        -1.45662657e-03],
       [ 9.30384472e-02,  2.46535718e-01, -8.36835131e-02,
         2.32310519e-02,  2.29341560e-03,  2.39999399e-01,
         2.88370162e-01,  2.67830372e-01,  2.39798471e-01,
         2.43929222e-01,  2.04928979e-01,  2.95867473e-01,
         1.65933847e-01,  3.19936842e-01,  1.36748180e-01,
        -1.45571873e-01],
       [ 1.68519244e-01,  3.02742928e-01,  3.16665292e-01,
         1.87301382e-01,  1.06762385e-03,  1.79340392e-01,
        -3.57117467e-02,  4.30625305e-02,  7.50687867e-02,
         1.12220481e-01,  2.06444696e-01,  1.91389635e-01,
         2.30361968e-01,  1.87664866e-01,  1.51193753e-01,
         5.13611436e-01],
       [-5.91568369e-03, -7.99893960e-02, -2.73156203e-02,
        -1.84542052e-02,  1.60330511e-03, -7.81777874e-02,
        -8.17779973e-02, -9.72306356e-02, -1.24351688e-01,
        -6.91255927e-02, -3.82276960e-02, -1.18144408e-01,
        -5.20021580e-02, -1.14477545e-01, -5.25299199e-02,
         2.98031308e-02],
       [ 9.14962776e-03, -5.40971104e-03,  2.67153084e-02,
         1.81454085e-02, -3.85274616e-04, -8.55584629e-03,
        -2.58898493e-02, -1.67750195e-02, -7.80558027e-03,
        -2.01994367e-03,  2.60173896e-04, -1.80261061e-02,
         1.21475279e-03, -2.92811319e-02, -5.93773322e-03,
         3.37711722e-02],
       [-1.20880650e-02, -8.41169711e-03, -1.88193973e-02,
        -3.84433800e-03,  1.11730958e-04,  7.74880964e-03,
         7.12875370e-03,  2.99713109e-04, -1.95783912e-04,
         3.82766780e-03,  3.94200813e-03, -6.03356771e-03,
        -1.40271080e-03,  1.05773369e-02,  3.76113667e-03,
        -4.78139296e-02],
       [ 1.25158782e-04, -3.30363575e-04,  3.03865317e-03,
        -7.45478261e-04,  7.64966753e-05,  1.37887767e-03,
         1.43466017e-03,  8.44763359e-04,  6.74113724e-03,
         4.53499611e-04,  4.56019212e-03,  1.28514250e-04,
         6.54511095e-04,  9.38299811e-04,  8.90472584e-05,
        -1.52899083e-02]], dtype=float32), 'gcn/graphconvolution_2_vars/weights_0:0': array([[-0.1783649 ,  0.9441949 , -0.3860929 ,  0.5891512 ],
       [-0.5941189 ,  0.8265503 , -0.02895729,  0.9901425 ],
       [-0.5403829 ,  1.9153497 , -0.1752295 , -0.4294509 ],
       [-0.8640755 ,  0.93437415, -0.657485  ,  0.01557486],
       [ 0.38810232,  0.46671027,  0.05798088, -0.3905074 ],
       [-1.0292605 ,  0.305792  , -0.7596442 ,  0.6111751 ],
       [-0.8103207 , -0.5584251 , -0.08845981,  1.5819695 ],
       [-0.54400396, -0.37844974, -0.10743697,  1.1397742 ],
       [-0.9953529 , -0.19329628, -0.02116651,  0.76036906],
       [-0.6756777 ,  0.2864572 , -0.5745076 ,  0.66499406],
       [-0.31645927,  0.47980815, -0.5983565 ,  1.0206687 ],
       [-0.9838447 ,  0.46588612,  0.15064335,  0.82046473],
       [-0.71974987,  0.53090346, -0.61568874,  0.45281735],
       [-0.97549045, -0.30432925, -0.7255582 ,  0.87797415],
       [-0.5250065 ,  0.14049329, -0.7168339 ,  0.5350788 ],
       [-0.26680863,  1.8349426 ,  1.1880836 , -1.6546355 ]],
      dtype=float32), 'beta1_power:0': 4.8469064e-07, 'beta2_power:0': 0.8710398, 'gcn/graphconvolution_1_vars/weights_0/Adam:0': array([[-1.97503432e-05, -3.42260682e-05,  1.66733545e-04,
         4.76000641e-05, -2.48647848e-05, -4.27443592e-05,
        -9.67800224e-05, -3.63108447e-05, -2.45064348e-05,
         3.29307659e-05, -5.67985480e-05, -3.46646630e-07,
         4.89365120e-05, -3.73342009e-05, -3.51843046e-05,
         1.28782165e-04],
       [ 3.02052513e-06, -3.88449007e-05,  2.52695900e-05,
         4.47610910e-05,  3.45653007e-06,  6.62458115e-05,
         4.49399813e-05,  7.71546693e-05,  8.03506337e-05,
         3.99955388e-05,  9.52669143e-05,  6.37753401e-05,
         4.45921069e-05,  1.09646113e-04,  2.89419258e-05,
         1.13391579e-04],
       [ 9.22387233e-09,  6.41647346e-10,  9.75399317e-09,
        -8.07929901e-09, -2.38359155e-09,  1.05642783e-08,
         1.36411216e-09,  8.53317972e-10,  2.85047133e-08,
         1.95039380e-08, -2.04528252e-08, -4.24532764e-09,
         2.26786478e-09,  8.94760888e-09,  1.90169769e-09,
         4.13144630e-09],
       [-1.69565483e-05,  2.51316542e-05,  1.64957935e-04,
         1.40921329e-04, -6.41879387e-06,  1.10531881e-04,
        -2.76826286e-05, -5.17939043e-08,  5.09174934e-05,
         7.84723088e-05, -4.67826794e-06,  3.58745710e-05,
         1.95492303e-05,  1.09452893e-04,  7.19562013e-06,
         2.19890397e-04],
       [-3.49874927e-06,  1.22137897e-06, -6.15861700e-06,
        -7.28691305e-07, -1.48267063e-07, -2.00976524e-06,
         1.48691197e-05,  2.77206777e-06, -1.45250851e-06,
        -4.48816036e-06, -1.68185477e-06,  5.32016657e-06,
        -6.41178985e-07,  2.11925862e-06,  1.87874821e-06,
        -1.21507019e-05],
       [ 1.87416003e-06,  3.76629623e-06,  4.91321543e-06,
         1.39165459e-05,  3.83481392e-07,  5.64368861e-07,
         1.08483619e-07, -3.93515893e-06,  1.79022538e-06,
         2.06348682e-06,  1.64091193e-06, -1.41427222e-07,
        -1.01947978e-06,  1.10285964e-05,  5.42473936e-06,
        -1.39398799e-06],
       [ 1.31917966e-06,  8.53493873e-07,  1.11517866e-05,
         7.20409844e-06, -8.91691485e-08, -2.26190627e-06,
        -9.97504503e-06,  2.12110194e-06, -1.48109802e-06,
        -2.21246609e-07,  1.49561060e-06,  2.97240695e-06,
         3.80071401e-06, -2.72912166e-06,  2.45057572e-06,
        -2.05783363e-06],
       [-3.80256529e-06, -2.29257103e-06, -4.82033738e-06,
        -2.59766807e-06, -4.29357357e-07, -2.82899009e-07,
        -6.52567451e-07,  5.72131739e-07, -4.51516098e-06,
        -2.42280566e-06,  1.15469129e-06, -3.36807125e-06,
        -1.14288116e-06,  1.07484357e-06, -4.70471969e-06,
        -9.96310064e-06],
       [ 1.03417187e-05,  1.81836767e-05,  1.29381242e-05,
        -4.89716786e-06,  3.63526283e-07,  2.58820310e-05,
         3.50719019e-05,  3.58393918e-05,  3.77452416e-05,
         1.93227515e-05,  3.38880454e-05,  1.53090332e-05,
         8.17281762e-06,  3.91588546e-05,  1.72683067e-05,
        -6.95737617e-05],
       [-5.33090406e-06, -9.86560008e-06, -1.56672741e-06,
        -1.51749157e-06, -2.45186698e-08, -3.42996964e-06,
        -5.15449119e-06,  4.53903067e-06, -6.90842990e-06,
        -1.04716437e-05,  1.35841435e-06,  2.64372193e-06,
         2.13849717e-06, -4.16270450e-06, -1.80413463e-06,
         3.22485648e-05],
       [-2.12784198e-06,  2.64426285e-06, -2.86227396e-06,
        -1.76886738e-06, -2.13854392e-08,  4.97712836e-06,
        -6.54143923e-06,  4.57288388e-06,  1.06523328e-06,
         2.20972879e-06,  5.31701517e-07,  2.64254254e-06,
         1.03504169e-06, -1.12203406e-06, -1.53970950e-06,
        -1.60868185e-05],
       [ 6.60433841e-07, -6.34343849e-08, -6.12478061e-07,
        -1.92303878e-06, -1.29594122e-08, -6.52320864e-07,
         2.45692490e-06, -1.68085171e-06, -2.60625075e-06,
         7.18046209e-08,  1.18061087e-06,  5.51055450e-07,
        -1.29662021e-06, -2.79548203e-07,  8.00660359e-07,
        -4.47764705e-06],
       [ 2.37072754e-06, -4.14891156e-06, -2.90019352e-06,
         1.21229868e-06, -3.52160129e-07,  1.03437405e-05,
        -7.44841009e-06,  2.12380291e-06,  3.27449470e-06,
         6.09881454e-07,  9.09342452e-06,  1.28513875e-07,
        -2.83544591e-06,  1.45239646e-05, -2.47002299e-06,
        -1.45721356e-06],
       [ 2.07645712e-07, -1.76174933e-06,  7.30537704e-06,
        -4.14094472e-07,  5.79042307e-08, -1.70830549e-06,
        -1.32700791e-06,  2.51955953e-07, -9.94740162e-07,
        -8.00663713e-08, -2.99486646e-06,  2.49276809e-07,
        -1.69159057e-06, -2.88860883e-06, -1.56018882e-06,
         4.82363521e-06],
       [ 1.67034983e-07, -2.40751615e-06,  1.51862105e-06,
        -1.06575817e-06,  3.40150379e-08, -3.35233921e-07,
         3.31547471e-06,  2.49417531e-06,  1.71179033e-06,
         3.20940757e-07,  2.24371570e-06, -5.42626196e-07,
        -3.23313361e-06, -3.11337340e-06,  3.29114187e-07,
        -7.33902198e-07],
       [-2.74316676e-08, -7.01509748e-08, -1.66649647e-06,
        -1.02636193e-06, -5.00400121e-09,  8.16586407e-08,
         1.42791419e-06, -4.76269861e-07,  3.89323901e-07,
        -1.20396737e-06, -1.08996960e-06, -2.09935365e-07,
        -4.80418464e-07, -2.46582567e-06, -6.23990957e-07,
        -6.08668188e-06],
       [-1.10235555e-06, -2.38737357e-06, -2.66758639e-06,
        -4.06957406e-06,  3.02522039e-07, -2.33803439e-06,
        -1.44862611e-06, -2.28232716e-06, -3.01803129e-06,
        -1.21272808e-06, -2.11039878e-06, -2.41850739e-06,
        -2.49808863e-06, -5.49647029e-06, -3.03220122e-06,
         3.94537801e-06],
       [ 2.33588617e-06, -1.08165023e-06,  1.33063095e-05,
         4.83428994e-06, -2.27124673e-07, -1.02439321e-06,
        -2.36721326e-06, -5.42945963e-06, -2.10156691e-06,
         1.84082069e-07, -2.12048030e-06, -3.81424229e-07,
        -1.80373706e-06, -5.98716360e-06, -7.08851758e-07,
         1.50200449e-05],
       [ 3.04578703e-06, -7.49527317e-07,  1.29071705e-05,
        -3.46579191e-06,  6.13274324e-07,  1.81038795e-05,
        -8.74623038e-06, -5.97887993e-06, -1.39788117e-05,
        -3.42341536e-06,  4.91636456e-06, -6.49767844e-06,
         8.10084430e-07,  3.55074189e-06, -4.80218023e-06,
         1.90562132e-05],
       [ 1.98800876e-06, -1.21271910e-06, -4.30491218e-06,
         1.75931166e-06, -8.99237573e-09, -1.61011519e-06,
        -5.41366671e-06, -2.69865814e-06, -2.91632227e-06,
        -6.28506768e-07, -2.16446006e-06,  7.49922037e-07,
        -2.27799717e-07, -4.34557160e-06,  1.87118826e-06,
         1.81466858e-05],
       [ 2.30189272e-07, -4.44103307e-07, -2.24198857e-06,
         1.49029881e-06, -8.49570991e-09, -7.00505723e-07,
        -1.55126372e-07, -2.67303051e-07,  6.16765078e-07,
         1.23401287e-06, -4.83877102e-07,  1.73961610e-08,
        -4.50256721e-07, -4.63957065e-07,  5.49049560e-07,
         5.69114036e-08],
       [-3.22921619e-06,  2.85449573e-07, -4.70796022e-06,
        -6.29236229e-06, -9.43873690e-09, -5.03645197e-06,
        -6.05350078e-06, -1.39615361e-06, -2.32590037e-06,
        -1.14105148e-06, -7.41899657e-06, -5.47539184e-06,
        -2.53276971e-06, -2.44994862e-06, -1.64442633e-06,
        -1.18720436e-06],
       [ 1.46678826e-06, -1.46181264e-06,  1.14081331e-05,
        -1.09390817e-06, -3.29032019e-07, -5.98453653e-07,
        -8.11771861e-06, -1.92213724e-06, -3.56059854e-06,
         3.49106870e-07, -1.30091303e-06,  1.79286735e-06,
        -3.48216236e-06, -9.10224662e-06, -3.94936251e-06,
         1.38598489e-05],
       [ 1.46249960e-07, -1.51969672e-07, -2.39509291e-06,
        -1.12418036e-06,  1.25903710e-09, -4.59826083e-07,
         2.48978267e-07,  1.80521420e-06, -1.23716717e-07,
        -1.41698649e-07,  1.29354220e-07, -1.22721246e-07,
        -7.98344331e-07,  2.71793681e-08, -7.11097698e-07,
        -2.97401175e-06],
       [-7.30078318e-05, -1.61418036e-04,  1.05433006e-04,
         4.78921647e-05, -4.14331880e-05, -1.10057204e-04,
        -6.76048294e-05,  1.42648278e-05,  1.32229252e-05,
        -4.36379851e-05, -1.25794526e-04, -8.49736352e-06,
         1.83304219e-05,  1.45736631e-05, -8.74032703e-05,
         1.48330757e-04],
       [ 2.88286924e-06,  6.43719250e-05,  4.75854686e-05,
        -9.40739756e-06, -1.78476887e-06,  4.86285826e-05,
         4.19696407e-05,  5.88138646e-05,  6.39100472e-05,
         8.02639988e-05,  9.34380441e-05,  6.40993458e-05,
         1.06469433e-05,  1.45835540e-04,  4.49145991e-05,
         4.15126196e-05],
       [-3.59623323e-06, -4.02960495e-06,  5.66748713e-06,
        -5.41653890e-07, -4.05086382e-08, -7.43845840e-06,
        -1.66547179e-05, -3.01452701e-06, -3.99713781e-06,
        -5.52105666e-06, -2.44217449e-06, -7.38198969e-06,
        -5.87212162e-06, -3.69416739e-06, -7.05056073e-06,
         8.06745902e-07],
       [-3.99572400e-07, -8.39262975e-06,  1.16897600e-05,
        -4.66440542e-06,  2.42184058e-07, -8.85804366e-06,
        -1.44118985e-06, -5.89895353e-06, -1.16092110e-06,
        -8.05163927e-06, -4.79692790e-06, -5.02881539e-06,
        -4.62811840e-06, -6.95793051e-06, -6.32109277e-07,
         5.53205518e-06],
       [ 1.22727943e-06,  8.44428939e-07,  7.89101614e-06,
         2.29354418e-06,  3.04561411e-07,  1.47566971e-06,
        -2.09063910e-06, -1.47528795e-07,  5.23825236e-07,
        -1.66736947e-06,  1.82338908e-06,  2.46130458e-06,
         9.96933522e-07, -2.30575756e-06,  1.76568892e-06,
         1.12931230e-05],
       [ 3.86485772e-06,  7.47434387e-06,  3.92933252e-05,
        -1.54127483e-05, -6.57873534e-06,  6.35080723e-05,
         5.15577231e-05,  5.16736218e-05,  7.32827975e-05,
         7.84981021e-05,  8.56743864e-05,  4.09428321e-05,
         1.39538552e-05,  9.06229616e-05,  5.58805805e-05,
         8.19313864e-05],
       [ 4.36516120e-06, -3.19371975e-06,  1.28000156e-05,
         6.09235440e-06, -4.03278989e-07,  9.85264933e-07,
        -1.01377136e-05, -4.94918731e-06, -1.08368545e-06,
        -5.51743142e-07, -9.23104380e-07, -3.87115733e-07,
         2.01804573e-06, -2.25737267e-06,  3.39043794e-07,
        -6.72838996e-06],
       [-5.03477622e-07,  7.19025763e-08,  1.56163442e-05,
         4.33288051e-06, -3.18607363e-09, -8.30897534e-07,
        -6.44173178e-06, -8.92793287e-06, -6.63052697e-06,
         8.72481223e-07, -2.68508666e-06, -4.29075044e-06,
        -3.20384675e-06, -2.91171978e-06, -1.05852905e-06,
         1.02577260e-05],
       [-1.74649983e-07,  1.15492401e-06,  2.75866637e-06,
        -3.50115897e-07, -7.14935382e-08, -3.16751311e-06,
        -5.76809725e-06, -5.03345109e-06, -4.87723264e-06,
        -3.04856530e-06, -2.78785365e-06, -1.93343317e-06,
        -1.68743497e-06, -2.39709493e-06, -6.65633024e-08,
         1.23402715e-05],
       [-2.37737777e-06, -1.75413561e-06,  6.25451185e-06,
         1.85692514e-07,  6.96407369e-07, -1.09750295e-06,
        -7.46211936e-06, -2.42597616e-06,  6.10728989e-07,
        -3.66041377e-07, -2.09993868e-06,  4.13042187e-07,
        -1.36528274e-06,  9.05424940e-07, -9.77331752e-07,
         9.37322056e-06],
       [-4.86608769e-07, -2.24942391e-06, -9.51028142e-07,
        -3.46551928e-07,  2.62929291e-07, -6.79526920e-07,
        -5.68932001e-06, -8.34224920e-07, -1.06866958e-06,
        -3.87883847e-06, -2.97149222e-06, -8.54066798e-07,
         3.91270817e-07, -7.05284810e-06, -1.60450838e-06,
         7.58281340e-06],
       [ 3.84520445e-06, -1.11262045e-04,  1.00184698e-04,
         9.59669705e-05, -2.32666080e-05, -6.29101269e-05,
        -1.18455384e-04, -1.14513226e-04, -4.51018568e-05,
         9.70649035e-06, -9.33712872e-05, -6.51412665e-06,
         2.86725699e-05, -5.35973886e-05, -4.19227399e-05,
         7.10113382e-05],
       [-1.73097578e-06,  2.29767538e-05,  6.02051223e-05,
         1.20487748e-05, -1.59599256e-06,  4.19755124e-05,
        -1.89711955e-05,  2.17988254e-05,  3.25859801e-05,
         5.78426334e-05,  3.74228475e-05,  5.08908088e-05,
         4.10670727e-05,  9.45663996e-05,  2.53396720e-05,
         5.98321458e-05],
       [-1.82512167e-06,  1.26851010e-05,  4.17805750e-05,
         1.72146574e-05, -5.87659883e-07,  5.14049534e-05,
        -1.68191636e-05, -1.55428861e-05,  1.84203100e-06,
         8.61907120e-06,  2.70729524e-05,  1.32490622e-05,
         2.02347182e-05,  5.10906866e-05,  1.47426590e-05,
         5.01571849e-05],
       [ 4.89740069e-06,  5.83367255e-05,  4.62437965e-05,
         2.43985542e-05, -9.99476015e-07,  4.19377211e-05,
         1.34255106e-06,  1.89964176e-05,  2.70848504e-05,
         6.16667676e-05,  6.48533824e-05,  4.74210865e-05,
         3.42083513e-05,  9.00959349e-05,  2.89788350e-05,
         9.60257021e-05],
       [-1.74394506e-06, -4.38504230e-06,  2.08094916e-05,
         1.64673997e-06,  4.23642717e-07,  8.84420751e-06,
        -2.45020947e-05, -9.15962028e-06, -5.87092927e-07,
        -6.76450099e-07,  5.03146111e-06, -8.32590922e-06,
        -2.56195631e-06,  1.70559542e-05,  3.59622140e-06,
         2.88389601e-05],
       [-3.96972564e-06,  2.17191769e-07,  1.39783970e-05,
        -3.42587646e-06,  2.65006932e-08, -4.44112629e-06,
        -1.03511638e-05, -2.46263880e-06,  2.81890289e-06,
        -5.16997625e-06,  2.83816553e-06, -5.44332579e-06,
        -2.01053899e-06,  9.48169600e-06, -2.62062758e-06,
         2.18987370e-05],
       [ 1.03605748e-06,  5.88853509e-05,  4.34991562e-05,
         2.53585713e-05, -2.32877119e-06,  6.86225540e-05,
        -1.26247487e-05, -8.07860943e-07,  9.07314006e-06,
         4.40330296e-05,  3.89275519e-05,  2.93109570e-05,
         2.08438250e-05,  5.14039275e-05,  1.97839363e-05,
         8.37857806e-05],
       [ 5.40054589e-06,  7.24157726e-05,  6.72579336e-05,
         9.39284291e-06, -7.93165270e-07,  9.41143517e-05,
         3.82536455e-05,  4.01014113e-05,  5.06273427e-05,
         4.24000391e-05,  2.85320457e-05,  5.16706532e-05,
         5.92535471e-05,  1.30140965e-04,  3.15376819e-05,
         1.00141842e-04],
       [ 4.69067845e-06,  1.42711706e-05,  6.77056523e-05,
         5.27407519e-06, -3.39253830e-07,  5.56032755e-05,
        -2.69740012e-05, -2.19337871e-05, -3.71959686e-07,
         1.83741849e-05,  3.45942608e-05,  2.19973681e-05,
         2.38336324e-05,  4.29496649e-05,  1.00200359e-05,
         1.13117814e-04],
       [ 1.27053781e-05,  4.83770600e-06,  5.81167697e-05,
         1.65433157e-05, -1.85553904e-06,  6.30855066e-05,
        -4.70450368e-06,  1.82590138e-05,  3.84953673e-05,
         5.16989166e-05,  5.40472756e-05,  6.11439464e-05,
         3.70152666e-05,  1.13072856e-04,  3.89916604e-05,
         4.96147404e-05],
       [-6.88180353e-06,  1.74980032e-05,  3.17431695e-05,
         1.13449523e-05, -1.66867068e-07,  2.48821543e-05,
        -2.90891403e-05, -1.78134578e-05, -9.81421726e-06,
         5.32152671e-06,  8.85525697e-06,  1.14739169e-06,
         2.55251962e-06,  1.12627986e-05, -8.07916240e-06,
         7.14005801e-05],
       [ 1.06638372e-05,  2.42596961e-05,  5.84342451e-05,
         3.64893604e-05, -2.38706230e-06,  4.74105545e-05,
         1.01543437e-05,  3.25859655e-05,  3.19158753e-05,
         5.74981605e-05,  4.28420717e-05,  6.61314043e-05,
         2.50060293e-05,  1.15712275e-04,  5.04797245e-05,
         1.03721948e-04],
       [ 3.41810846e-08,  1.64966823e-05,  4.24661412e-05,
        -2.05339711e-06,  5.71764758e-07,  2.65962062e-05,
        -9.22201980e-06, -5.99913346e-06, -5.04050331e-06,
         1.49972193e-05,  9.90087028e-06,  2.31282525e-06,
         1.21748462e-05,  3.82423823e-05,  2.96193275e-06,
         4.72267166e-05],
       [-3.06676725e-06,  2.00998948e-05,  3.31513693e-05,
         1.13311717e-05, -2.72827720e-07,  5.09364290e-05,
        -2.19819940e-05, -7.78425238e-06, -6.84403858e-08,
         1.95035936e-05,  2.22838771e-05,  6.87746888e-06,
         1.46498242e-05,  2.13287312e-05,  7.39863253e-06,
         1.97547179e-05],
       [ 9.58270448e-07,  7.64742526e-06,  5.02565854e-05,
         7.18717274e-06, -2.10902527e-07,  1.57912950e-06,
        -3.25037254e-05, -2.43552931e-05, -1.06490215e-05,
        -1.89735374e-07,  4.52613449e-06, -5.28532291e-06,
         1.30552246e-06,  2.65199087e-05,  7.31303999e-07,
         2.66010575e-05],
       [ 2.18766331e-06, -8.56956262e-07,  7.19358923e-06,
        -2.33276864e-06, -2.99220005e-07,  4.68312749e-07,
        -5.70814473e-06, -2.80028735e-06,  8.86775183e-07,
        -1.27302928e-06, -1.16915589e-06,  3.30714045e-07,
        -1.49373932e-07,  1.40533621e-06, -1.59584587e-07,
        -8.11276550e-07],
       [ 1.35635071e-06,  1.20030541e-06,  5.22542177e-06,
        -1.74955994e-06, -3.20410862e-07, -3.43838065e-06,
         1.74608749e-06, -2.45531510e-06,  4.40843223e-07,
        -6.62074854e-07, -3.13550618e-06,  2.80211793e-07,
         6.42352632e-07, -1.31968807e-06,  8.37138003e-08,
         1.43463762e-06],
       [ 2.58427144e-06,  2.20951188e-06,  8.17698674e-06,
         1.27545798e-06, -3.40165229e-10,  8.08552727e-07,
         1.11285817e-06, -5.20668164e-06,  1.56103124e-06,
        -1.78248706e-06,  2.09539351e-07, -1.39682197e-06,
         8.83815460e-07, -2.65284825e-07, -5.55153122e-07,
        -3.46383331e-08],
       [-8.08906498e-06, -4.01326761e-05,  7.67781676e-05,
         7.82796196e-05, -1.37726347e-05, -9.85587758e-05,
        -1.14604205e-04, -2.34307336e-05, -7.08820226e-05,
        -4.56799971e-05, -9.65042418e-05, -8.72957171e-05,
        -3.03321503e-05, -1.09700093e-04, -1.94481636e-05,
         2.47667158e-05],
       [ 6.60001842e-06,  4.39818104e-05,  7.78567555e-05,
         3.83427614e-05,  3.47071364e-07,  9.19933955e-05,
        -9.81724497e-06,  9.85609404e-07,  1.86135840e-05,
         5.35392610e-05,  4.34344765e-05,  2.98989962e-05,
         2.04510579e-05,  8.80034204e-05,  1.68293718e-05,
         1.26767991e-04],
       [-1.08564464e-07,  1.01704768e-06,  2.13459748e-06,
        -4.63231800e-07,  1.51137378e-08, -1.29659622e-06,
        -3.64785637e-06, -6.64970412e-06, -3.73786975e-06,
         8.34460138e-07,  1.39922065e-08,  1.11857048e-06,
        -2.49083485e-07,  7.72455522e-08,  1.38169185e-07,
         1.49806965e-05],
       [ 1.76637428e-07, -7.38349968e-08,  6.37048117e-07,
         1.07557213e-07, -2.04770179e-09, -8.93986225e-07,
        -2.09642380e-07, -2.14724722e-07, -4.89485927e-08,
        -1.05625134e-07, -5.85116709e-07,  8.46521289e-07,
        -2.90747977e-07, -1.55459730e-07, -1.49218153e-07,
        -3.62540050e-07],
       [-1.25928432e-06, -3.28876217e-06,  4.19416392e-06,
        -7.05037974e-06,  2.74029226e-08, -5.39603616e-06,
         5.44657269e-07, -9.58288820e-06, -5.67864981e-06,
        -1.09653229e-06, -3.10064593e-06, -5.85600264e-06,
        -3.50132404e-06, -1.10034998e-05, -3.08788913e-07,
         8.05384752e-06],
       [ 9.42813926e-07,  1.42907993e-06,  5.42349426e-07,
         2.21830214e-06, -7.91917955e-07,  1.69587099e-06,
         7.09768756e-06, -1.93815504e-06,  4.71994463e-06,
         4.86767476e-07, -2.83645613e-06, -1.84367900e-06,
         1.02111676e-06,  2.86137879e-06,  1.07020469e-07,
         7.18989168e-06],
       [ 6.00052203e-07,  1.79294216e-06,  1.92631524e-06,
         1.71328179e-06, -5.94119399e-07, -1.14909460e-06,
        -1.49127470e-06, -6.82131372e-07, -7.05990217e-08,
        -6.04086495e-07, -6.11591759e-07,  4.41506018e-07,
        -9.07576805e-07, -1.63005802e-06,  4.30920636e-07,
         4.81079269e-06],
       [-2.56915928e-06, -2.84225962e-06, -6.38612846e-06,
        -9.41901817e-07,  5.75749937e-09,  5.00422175e-07,
         1.77144102e-07,  1.59087608e-06, -1.51773384e-06,
        -8.46781973e-07,  2.77696927e-07, -4.67955488e-08,
        -2.67745179e-07,  9.78001708e-07, -2.73279454e-07,
        -2.49479353e-06],
       [-2.80003860e-06, -4.62704247e-06,  1.72005821e-05,
         1.02182480e-06, -1.32740297e-06, -5.64833863e-06,
        -2.65307244e-06, -5.35447498e-06, -8.47131651e-06,
        -3.16883211e-06, -5.06930110e-06, -5.45383182e-06,
        -1.94954328e-06, -2.77327854e-06, -2.13969838e-06,
         5.08412768e-06],
       [-6.07398397e-06, -9.91245688e-05,  1.74313158e-04,
         1.32144763e-04,  2.92071650e-06, -1.58708444e-05,
        -1.64668832e-04, -1.47831379e-04, -6.27039262e-05,
        -7.37394730e-05, -3.66022359e-05, -8.40903158e-05,
         3.47141849e-06, -4.11861802e-05, -8.05333548e-05,
         1.12059468e-04],
       [-4.69860061e-06,  3.76617973e-05,  4.97289548e-05,
         2.70746314e-05, -1.44161754e-06,  2.86996747e-05,
        -1.91165645e-06,  3.79379417e-05,  3.89946690e-05,
         1.42122881e-05,  2.14992706e-05,  7.73852116e-06,
         4.17375486e-05,  1.19538294e-04,  2.91394535e-05,
         1.76009169e-04],
       [-2.75838147e-06, -4.47811499e-06,  8.98928738e-06,
        -5.38404356e-06,  6.87434351e-07, -2.57773104e-06,
        -4.43662702e-06, -1.46819029e-05, -5.40008250e-06,
        -7.00455485e-06, -8.02270370e-06, -1.17817481e-05,
        -3.88150011e-06, -7.84610529e-06, -6.48446348e-06,
         2.16463741e-05],
       [-3.65767232e-06, -3.66272525e-06,  3.89285105e-07,
        -5.26967779e-06, -2.34494024e-09, -1.51988513e-06,
        -2.85491524e-06, -6.71071439e-06, -3.39698818e-06,
        -5.73056241e-06, -4.95182621e-06, -2.71144268e-06,
        -1.46103503e-06, -4.79876098e-06, -5.41414465e-06,
        -2.67258361e-06],
       [ 4.49642670e-08,  1.86436466e-07,  2.39622182e-07,
         1.16718184e-07, -3.79574239e-09, -1.32613621e-07,
        -1.45901049e-06,  2.36045139e-08, -1.39675848e-07,
        -2.86056292e-07,  6.39472297e-09, -3.23159668e-07,
         5.94238259e-07,  3.58632747e-07,  3.27000009e-08,
         1.33486878e-07],
       [-8.57603197e-08,  2.97099291e-07,  8.78581659e-07,
         6.73731435e-08, -3.29555272e-09,  3.00440263e-07,
        -3.88944471e-07,  2.74002190e-08,  4.21690629e-07,
         2.12110720e-07,  4.04678559e-07,  5.80959778e-08,
         1.46300238e-07,  1.51239675e-07,  1.69510827e-07,
        -1.36815686e-06],
       [-3.47154710e-05, -5.94986959e-05,  8.52194789e-05,
         8.76616687e-05,  2.36877077e-06, -6.16100078e-05,
        -1.09265071e-04, -2.57616339e-05,  5.03415231e-06,
        -3.37667225e-05, -3.63891559e-05, -8.49150601e-05,
        -5.51984485e-05, -9.38014855e-05, -6.82777682e-05,
         4.88715123e-05],
       [-1.92871727e-08, -1.81531459e-06, -3.70256521e-06,
        -1.44275327e-06, -3.25991714e-08, -5.53683890e-08,
         3.42273688e-06, -2.18357309e-06,  3.28088134e-07,
        -1.96426595e-06,  1.57560589e-06, -7.09897449e-07,
        -1.49537664e-06, -5.62034757e-07, -1.78841063e-07,
        -4.67768700e-07],
       [-4.05469109e-06, -6.51722621e-06,  1.06959187e-05,
         1.55230055e-07, -3.76641935e-08,  1.54106669e-06,
        -1.15167732e-05, -1.02855738e-05, -3.74866272e-06,
        -3.05825074e-06, -6.83975941e-06, -3.11630447e-06,
        -1.71433749e-06, -5.29453200e-06, -1.26220721e-06,
         1.60002819e-05],
       [-2.27149467e-05, -1.27566425e-04,  1.20673329e-04,
         1.69766645e-06, -5.26501981e-06, -7.62190539e-05,
        -6.51506125e-05, -3.13085584e-05, -2.52266564e-05,
        -4.85929631e-05, -1.19897886e-05, -7.23147896e-05,
        -5.22463997e-05, -4.76333207e-06, -1.85872213e-05,
         1.72358647e-04],
       [ 3.31060642e-06,  1.64830108e-05,  4.99434500e-05,
         1.88409267e-05, -1.39227765e-07,  5.37333108e-05,
        -3.30101375e-06,  1.20268578e-06,  9.55021733e-06,
         3.30546791e-05,  1.96184028e-05,  3.42096646e-05,
         2.48653942e-05,  7.74778819e-05,  1.01783107e-05,
         4.27312407e-05],
       [-6.50940274e-06,  3.28530296e-05,  3.64958541e-05,
         2.05223705e-06, -1.67513213e-06,  3.77792676e-05,
         3.59002911e-06,  7.98170367e-06,  1.63480263e-06,
         1.64009707e-05,  3.28802562e-05,  1.09760003e-05,
         2.21526852e-06,  6.68555585e-05,  1.40709608e-06,
         4.21941440e-05],
       [-1.16394349e-05,  2.59156841e-05,  3.46987326e-05,
        -9.28071131e-06,  2.68973167e-07,  4.33034074e-05,
         1.15937628e-05,  2.53871549e-05,  3.37578167e-05,
         6.32174897e-06,  2.64461123e-05,  2.87226721e-05,
         2.58314612e-05,  1.03132792e-04,  2.82728943e-05,
         1.08865781e-04],
       [ 1.38272771e-05, -4.64157638e-05,  1.23193749e-04,
         8.08077384e-05,  7.12274914e-06, -2.00285522e-05,
        -1.73417327e-04, -1.35773545e-04, -3.26345507e-05,
        -8.27009644e-05, -1.16718882e-04, -2.99999410e-05,
         9.05744128e-06, -1.63285004e-04, -5.66456838e-05,
         1.01129146e-04],
       [-2.38614746e-07, -1.13816725e-07,  4.66502897e-05,
        -4.37983044e-06, -7.31614932e-07,  2.18564928e-05,
        -1.68782717e-05, -1.73115550e-05, -1.41713745e-05,
         4.83794474e-06, -2.84435828e-06,  1.96319206e-07,
        -1.96040764e-06, -9.70862220e-06, -1.86882244e-06,
         5.29805475e-05],
       [-1.63023083e-06,  1.45228423e-05,  7.33482520e-05,
         2.06436271e-05, -6.84812903e-07,  8.59180218e-05,
         1.31728575e-06,  3.21506377e-05,  4.47032908e-05,
         6.03306871e-05,  6.42846280e-05,  5.80426349e-05,
         5.61280976e-05,  1.54450434e-04,  2.17605902e-05,
         1.22275029e-04],
       [ 3.87468208e-06,  8.14742998e-06,  3.30201619e-05,
         1.63718141e-08,  9.79005250e-08,  3.06716938e-05,
         5.44653176e-07,  1.94504537e-08,  5.81837185e-06,
         7.04277181e-06,  1.44758560e-05, -1.56812439e-06,
         2.08882921e-06,  3.23042805e-05, -2.08667689e-06,
         2.36976484e-05],
       [-7.33730212e-06, -3.49182483e-05,  1.05854488e-04,
         5.49838405e-05, -2.22429007e-05, -9.45644715e-05,
        -1.61914519e-04, -1.48985331e-04, -1.81012138e-06,
        -5.87988034e-05, -7.85117227e-05, -9.76916053e-05,
         2.33568062e-05, -5.65517839e-05, -2.87141447e-05,
         1.14626637e-04],
       [ 9.72212433e-07, -3.41999385e-06,  1.55800826e-05,
        -3.49147649e-06, -8.31489615e-08, -5.07511186e-06,
        -6.83100188e-06, -1.15434132e-05, -2.47208391e-06,
        -2.18808600e-06, -3.09287816e-06, -3.44739692e-06,
        -2.21329447e-06, -3.75183640e-06, -2.56391650e-06,
         1.25917668e-05],
       [ 5.09035999e-06,  1.05593017e-06,  3.18338462e-05,
         5.33988896e-06,  4.40566168e-07,  1.32783380e-05,
        -1.40055054e-05, -1.00169855e-05, -5.54117094e-07,
         6.71081261e-06,  4.15058912e-06, -1.46494358e-06,
        -2.66670986e-06,  1.63847108e-05, -3.40933525e-06,
         6.93996626e-05],
       [-5.57057660e-07,  2.35723710e-05,  5.29295467e-05,
         1.81286487e-05,  1.85138049e-07,  4.06715299e-05,
        -3.13259734e-05, -2.49670211e-05, -1.52369205e-06,
         1.26691020e-05, -1.67726330e-06, -3.88937769e-06,
         7.74744694e-06,  3.69691588e-05, -1.10865631e-06,
         6.48794085e-05],
       [-4.96928260e-06, -4.53571784e-06,  2.11295646e-05,
        -1.20934656e-05,  4.21425703e-08,  3.25183282e-06,
        -1.59417450e-05, -4.74522403e-06, -9.48570323e-06,
        -7.17636158e-06,  1.24659857e-06, -7.53452423e-06,
        -8.23305436e-06,  1.38194209e-05, -6.78686956e-06,
         3.35951081e-05],
       [-3.08835138e-06, -3.08525205e-06,  6.86744761e-06,
         2.07297853e-06,  3.20457985e-07, -5.69421127e-06,
        -3.44378850e-06, -6.63415358e-06, -2.57455804e-06,
        -5.82028952e-06, -3.95751931e-06, -5.06990136e-06,
        -3.88687204e-06, -2.71105876e-07, -6.92114827e-06,
         9.80524328e-06],
       [-1.87963806e-07, -3.02575785e-07,  7.39072448e-09,
        -2.27852709e-07,  3.12656390e-09,  5.07762863e-08,
        -4.52571953e-07, -4.95241693e-07,  6.19554896e-08,
         3.56436061e-07,  4.20842724e-07, -5.50850991e-08,
        -3.33414732e-07,  5.42256657e-07, -7.20365847e-08,
         5.28372425e-07],
       [ 1.36339804e-06, -5.37513079e-05,  9.65447616e-05,
         1.18137832e-04, -1.50319966e-05, -8.85169575e-05,
        -7.81765630e-05, -9.25289569e-05, -3.29165377e-05,
        -3.07088012e-05, -7.07490108e-05, -4.62812895e-05,
        -2.55339910e-05, -1.27649866e-04, -7.77642890e-06,
         5.25043615e-05],
       [ 1.90164371e-07,  3.28541428e-05,  4.52046552e-05,
         1.38005962e-05,  2.94269711e-07,  1.98156104e-05,
        -2.84707057e-05, -2.70233704e-06,  1.16358842e-06,
         1.77601487e-05,  1.44661726e-05,  6.02673754e-06,
         2.88153005e-05,  4.39218456e-05,  1.26545483e-05,
         4.55976115e-05],
       [ 1.51640743e-05,  1.50191017e-05,  1.24932369e-04,
         3.26002519e-05,  1.29671577e-07,  6.49194189e-05,
        -1.69698797e-05, -1.86981088e-05,  6.88207319e-06,
         1.60131567e-05,  4.38200186e-05,  7.97740631e-06,
         3.91205649e-05,  4.51123451e-05,  1.69777195e-05,
         1.69868144e-04],
       [-1.64406026e-06, -1.54774887e-06,  2.09885111e-05,
         8.04882075e-06,  6.38775759e-07, -1.43657701e-07,
         3.76328830e-06, -1.29582504e-05, -2.82623773e-07,
        -5.35924846e-06, -6.96772986e-08, -1.76529443e-06,
        -1.46064667e-06, -2.88001092e-06,  1.00207626e-06,
         1.03177535e-05],
       [ 1.60772174e-07, -4.87308284e-07, -2.81251732e-06,
         2.71504064e-08, -1.15355347e-09,  2.03525678e-06,
         1.52133725e-06,  5.76497996e-07,  3.15724537e-06,
         1.66879909e-06,  1.30867170e-06,  1.72632144e-06,
         7.05927619e-07,  4.21911227e-06,  3.78902314e-07,
        -3.80162055e-06],
       [ 5.20605045e-06, -1.05968509e-04,  6.20998690e-05,
         5.11709586e-05, -1.37464449e-05, -1.20592820e-04,
        -8.72217643e-05, -3.70329653e-05, -4.84289649e-06,
        -1.35116506e-05, -8.86045455e-05, -4.14363240e-05,
        -4.05413957e-05, -1.04989958e-04, -1.24385851e-05,
         7.01328099e-05],
       [ 8.57553277e-06,  3.84056075e-05,  6.82156824e-05,
        -2.29903144e-05, -5.78462732e-07,  7.63123244e-05,
         1.98266971e-05,  1.48797099e-05,  4.19026983e-05,
         5.58439897e-05,  6.26055480e-05,  4.75416091e-05,
         3.61208295e-05,  1.41995391e-04,  2.22869294e-05,
         1.03761980e-04],
       [ 1.27790136e-05,  5.73880461e-05,  7.01916651e-05,
        -9.33927095e-06, -3.41770510e-06,  4.15252762e-05,
        -1.16998372e-05,  1.80137795e-05,  3.87451364e-05,
         4.25851504e-05,  5.89324300e-05,  1.87367968e-05,
         1.28456722e-05,  9.35183634e-05,  1.90600949e-05,
         1.33004985e-04],
       [-1.05486261e-05,  1.72621440e-05,  4.25842300e-05,
        -5.89106048e-06, -1.04441779e-06,  1.73696462e-05,
        -1.25723791e-05, -2.43538670e-05,  6.10638290e-06,
         2.03187083e-05,  3.47558234e-05,  6.42698888e-06,
        -9.76103593e-07,  3.35554178e-05,  2.45811862e-07,
         5.24916395e-05],
       [-3.67312896e-06,  4.66229358e-06,  2.92242894e-05,
         3.45921489e-06,  1.15072180e-06,  1.55207199e-05,
        -1.68290098e-05, -9.58050350e-07,  9.37601726e-06,
         2.36865035e-05,  2.33239007e-05,  1.56609731e-05,
         1.50044507e-05,  3.62317951e-05,  1.27212770e-05,
         8.08444238e-05],
       [-2.56740600e-06,  2.10066059e-06,  2.50769881e-05,
        -8.02899194e-07, -4.47688308e-07,  8.29439250e-06,
        -1.21459552e-05, -1.57703016e-05, -4.21803452e-06,
        -9.38587254e-06, -6.25362145e-06, -7.67217352e-06,
        -4.12648433e-07,  8.08336381e-07, -3.04226796e-06,
         3.16675250e-05],
       [-4.69921633e-06, -8.98463259e-06,  1.54343470e-05,
        -7.75717581e-06,  4.61521914e-08, -1.84567352e-06,
        -8.19546585e-06, -8.99488259e-06, -7.20929211e-06,
        -9.55767882e-06, -5.78317031e-06, -6.20257651e-06,
        -3.94475546e-06, -1.09074317e-05, -3.48804247e-06,
         4.16700777e-06],
       [-6.36198411e-06, -3.71543797e-06,  5.47483796e-06,
        -5.82539315e-06, -4.96901237e-07,  1.41114890e-06,
        -1.20176337e-05, -6.11580754e-06,  2.46046534e-06,
        -6.71969747e-06, -3.80425035e-06, -4.63936976e-06,
        -8.82844870e-06,  1.69518735e-05, -4.85302553e-06,
         2.15443961e-05],
       [-5.23503923e-06, -1.87537978e-06,  4.72635566e-06,
        -3.80319761e-06,  1.74843294e-07, -1.60938771e-06,
        -3.55841689e-06, -6.78006563e-06, -1.84454063e-06,
         1.16922592e-07, -2.55009581e-07, -7.79108973e-07,
        -2.25537838e-06, -2.27898090e-06, -1.99807027e-06,
         9.15599230e-07],
       [-4.60313504e-06, -1.38187477e-06,  3.52201168e-05,
        -2.17576689e-06,  1.01679700e-06, -2.41206180e-07,
        -1.23173659e-05, -1.35691562e-05, -8.73148201e-06,
        -1.98880502e-06, -6.23265532e-06, -9.32554212e-06,
        -3.95153847e-08,  7.21777724e-07, -4.21148070e-06,
         3.44124237e-05],
       [-4.73335831e-06,  1.41408409e-05,  2.00304348e-05,
         5.74756041e-06,  6.53477628e-08,  6.99179291e-05,
        -6.98620170e-06, -4.52953645e-06,  2.49790010e-05,
         2.11664264e-05,  2.58559030e-05,  3.37803576e-05,
         2.54772185e-05,  1.04635212e-04,  2.40124646e-05,
         5.82412613e-05],
       [-3.65407118e-06, -2.98503473e-05,  3.66862041e-05,
         8.97400241e-05,  5.29030513e-06, -9.28615336e-05,
        -1.17164433e-04, -8.11126083e-05, -5.23128665e-06,
        -5.49441284e-05, -1.00661193e-04, -5.36748812e-05,
         2.57158281e-05, -6.98950826e-05, -4.81297502e-05,
         4.25679427e-05],
       [ 1.22011697e-05,  1.48655295e-06,  4.00180397e-05,
         5.50726145e-06,  2.74281615e-06,  1.28090309e-04,
         1.01055368e-04,  1.29594715e-04,  1.22477548e-04,
         4.95861423e-05,  8.55154649e-05,  1.77986221e-05,
         3.79766680e-05,  1.82213436e-04,  1.08900720e-04,
         1.00685698e-04],
       [-1.92907901e-05,  1.94529694e-05,  2.04449370e-05,
        -1.84594719e-05, -1.80337679e-06,  3.63810868e-05,
         7.96838722e-05,  7.55992951e-05,  7.47035883e-05,
         6.08777118e-05,  2.70140190e-05,  4.56391244e-05,
         5.16061409e-05,  1.34066810e-04,  5.98426595e-05,
         1.06896980e-04],
       [ 4.74493527e-06, -1.16132614e-04,  6.98257281e-05,
         5.90128475e-05,  5.07041523e-06, -4.64222067e-05,
        -1.08871318e-04, -4.24746831e-05, -2.80367058e-05,
        -6.03375302e-05, -1.09732595e-04, -4.69817542e-06,
        -4.55377449e-05, -1.53909714e-04, -4.26298575e-05,
         8.19003762e-05],
       [ 1.01836031e-05,  9.22014715e-06,  7.91355778e-05,
         2.86073719e-05,  6.47260322e-07,  7.69751568e-05,
         3.89585257e-05,  6.90201923e-05,  8.11767823e-05,
         9.71706322e-05,  5.42206944e-05,  2.73908990e-05,
         6.21559811e-05,  1.98357156e-04,  5.76125603e-05,
         1.30083179e-04],
       [ 3.44084697e-06,  1.81314647e-06,  7.76378874e-06,
         5.76466937e-06,  1.43348984e-07, -7.84040640e-06,
        -1.33264457e-05, -1.32542809e-05, -6.56265547e-06,
        -5.82083089e-07, -3.26747136e-06, -6.77065964e-06,
         3.38329482e-06, -1.18310663e-06, -2.95683981e-06,
         1.51270478e-05],
       [-6.42807208e-06, -1.41665048e-04,  6.65165280e-05,
         8.13089573e-05, -1.20550476e-05, -6.25637549e-05,
        -1.30509521e-04, -2.19560279e-05, -1.39548456e-06,
        -1.21399891e-04, -2.22459748e-05, -3.81935497e-05,
        -7.55045112e-05, -1.39343974e-04, -4.42323762e-05,
         1.02943945e-04],
       [ 8.29143119e-06,  1.05955723e-05,  4.78147049e-05,
         1.53525543e-05, -1.55191640e-06,  6.16663456e-05,
        -1.72346718e-05, -6.34748085e-06,  1.37026814e-06,
         2.11629667e-05,  2.24202049e-05,  1.90734536e-05,
         2.13837593e-05,  4.08063133e-05,  1.10716173e-05,
         5.22148075e-05],
       [-5.10307791e-06,  4.54175643e-06,  2.75327839e-05,
        -2.29571333e-06, -9.27528276e-08,  3.26461031e-06,
        -6.11276573e-06, -9.91662910e-06, -6.46938679e-06,
        -5.62939113e-06, -2.08302708e-06, -5.36373045e-06,
         5.36651896e-08,  3.68275164e-06, -3.97302927e-07,
         2.87673247e-05],
       [-7.68146492e-06, -1.27013218e-05,  2.54212136e-06,
        -1.98370867e-06, -9.73027454e-08, -1.08961412e-05,
        -9.27356632e-06, -1.42400859e-05, -8.74152192e-06,
        -6.73009208e-06, -1.11097634e-05, -5.42353064e-06,
